//Numpy array shape [64]
//Min -16.159084320068
//Max 15.441508293152
//Number of zeros 0

#ifndef B4_H_
#define B4_H_

//#ifndef __SYNTHESIS__
//static batch_normalization_bias_t b4[64];
//#else
static batch_normalization_bias_t b4[64] = {-7.9878716469, -11.7466716766, 10.8117742538, 9.3960494995, 0.1791946888, 6.0905752182, -9.3702440262, -5.1558818817, -12.4324951172, 6.2193188667, -1.2160958052, -3.3894052505, -0.0448827595, -11.2575063705, -1.5617548227, -4.9141993523, -1.6429712772, 4.4158577919, 2.0216369629, -7.6982889175, -1.2172640562, 9.3014907837, -7.0379843712, 13.2840175629, -1.1204935312, -9.8912057877, -0.6295350194, -13.1061315536, 4.7502274513, 10.5492506027, -15.8317422867, -0.0047398806, 1.0299434662, 2.2718968391, -7.6885695457, 15.4415082932, -8.5384225845, -5.9249677658, 5.9974040985, -7.6777162552, 4.9538512230, 1.1103926897, 1.4260141850, -16.1590843201, 3.8972601891, -4.2927942276, -6.3359074593, 7.5260124207, -1.6267760992, 2.5592689514, 1.7245780230, 10.5943841934, 5.1457819939, -1.7721673250, 5.3878154755, 3.7301919460, -4.1236252785, 1.4620318413, 10.8572196960, 1.6394195557, -4.1545419693, 12.4288368225, -7.1624011993, -5.6628351212};
//#endif

#endif
