//Numpy array shape [64]
//Min -2.470391511917
//Max 2.992574691772
//Number of zeros 0

#ifndef B8_H_
#define B8_H_

//#ifndef __SYNTHESIS__
//static batch_normalization_1_bias_t b8[64];
//#else
static batch_normalization_1_bias_t b8[64] = {-1.5756901503, 2.2494158745, -0.3066979647, -0.7230428457, 2.9258482456, -2.4703915119, 0.6097418666, -1.9382425547, -0.2049201727, -0.0884977579, 1.7797791958, -0.9948487282, -0.4361406565, -0.3882611990, -0.8435888290, -2.4495089054, -0.4852097631, -0.4845105410, -0.8877127767, 1.0411841869, 0.0680528656, 1.3050643206, 1.8093171120, 0.6806217432, -1.1971914768, 1.4270272255, -2.3806080818, 1.3260121346, 2.9925746918, 0.4793727696, -0.8171207905, 0.5020387769, 1.9796516895, -0.9024336934, 0.1981167793, 0.1859538555, -1.9568550587, -0.5428709388, -0.1027525589, 1.8525395393, -0.2923083305, -1.8198006153, -2.2943558693, 1.6886181831, -0.8872438073, -1.3575146198, 2.5532169342, 2.1384680271, -1.3748269081, 2.5826387405, 1.1136347055, 0.3015827239, 2.3095660210, 0.5775687695, 0.0124030113, 0.8882730007, 2.2626268864, 0.6528543234, -0.7590308189, -2.1181218624, -2.3284955025, 0.7654476762, -1.1370133162, -1.4444551468};
//#endif

#endif
