//Numpy array shape [64, 64]
//Min -1.000000000000
//Max 0.937500000000
//Number of zeros 462

#ifndef W18_H_
#define W18_H_

//#ifndef __SYNTHESIS__
//static weight18_t w18[4096];
//#else
static weight18_t w18[4096] = {0.00000, -0.25000, 0.31250, 0.06250, 0.25000, 0.00000, 0.00000, 0.31250, 0.62500, 0.31250, 0.00000, 0.12500, -0.06250, -0.31250, -0.12500, -0.06250, -0.18750, 0.75000, -0.25000, 0.31250, 0.06250, -0.06250, -0.37500, 0.12500, -0.12500, -0.18750, 0.37500, -0.25000, 0.25000, -0.06250, 0.06250, 0.18750, 0.37500, -0.06250, 0.06250, 0.00000, 0.00000, 0.00000, -0.06250, -0.12500, 0.00000, 0.12500, 0.00000, 0.25000, 0.12500, 0.37500, 0.18750, -0.06250, -0.25000, -0.12500, -0.31250, 0.00000, 0.00000, 0.12500, 0.37500, 0.31250, 0.00000, -0.43750, -0.06250, -0.25000, -0.06250, 0.25000, 0.25000, 0.12500, 0.18750, 0.06250, -0.18750, 0.62500, 0.50000, 0.00000, 0.00000, -0.12500, 0.18750, 0.06250, 0.25000, 0.00000, -0.12500, 0.50000, 0.00000, 0.31250, -0.06250, 0.18750, -0.12500, 0.18750, 0.12500, -0.12500, 0.25000, 0.12500, -0.06250, -0.31250, 0.00000, -0.12500, 0.06250, 0.31250, -0.06250, 0.00000, -0.37500, 0.43750, 0.06250, 0.43750, -0.12500, 0.68750, -0.18750, 0.12500, -0.12500, -0.18750, -0.12500, -0.12500, 0.37500, -0.18750, 0.18750, -0.37500, -0.06250, -0.06250, -0.12500, -0.12500, 0.06250, -0.12500, -0.43750, -0.12500, 0.00000, -0.50000, -0.06250, -0.12500, 0.37500, -0.12500, -0.06250, 0.18750, -0.18750, 0.37500, -0.12500, 0.00000, -0.18750, 0.00000, -0.18750, 0.18750, 0.06250, -0.06250, -0.18750, -0.12500, 0.00000, -0.06250, -0.12500, -0.06250, 0.12500, -0.06250, 0.12500, -0.06250, -0.43750, 0.00000, 0.62500, -0.18750, 0.12500, -0.56250, -0.31250, 0.06250, -0.06250, 0.31250, -0.25000, -1.00000, -0.43750, 0.12500, -0.12500, 0.06250, -0.75000, 0.12500, -0.12500, 0.06250, -0.37500, 0.12500, -0.12500, 0.00000, -0.06250, 0.37500, -0.18750, 0.31250, 0.12500, 0.00000, -0.06250, 0.18750, -0.37500, 0.37500, -0.18750, 0.00000, 0.06250, -0.43750, -0.12500, -0.06250, 0.00000, 0.18750, -0.25000, 0.00000, 0.43750, -0.06250, -0.12500, 0.06250, -0.12500, -0.06250, -0.31250, -0.12500, 0.00000, 0.00000, 0.18750, -0.06250, -0.25000, 0.00000, -0.18750, 0.31250, -0.31250, 0.06250, 0.00000, -0.06250, 0.31250, 0.12500, 0.18750, 0.25000, -0.18750, 0.68750, 0.00000, 0.56250, 0.50000, -0.06250, -0.12500, 0.00000, 0.37500, 0.62500, -0.12500, -0.25000, 0.12500, -0.06250, 0.12500, 0.25000, 0.25000, 0.12500, 0.12500, 0.06250, 0.25000, -0.18750, 0.06250, 0.06250, 0.00000, 0.12500, 0.18750, 0.12500, 0.18750, -0.12500, -0.06250, 0.06250, -0.18750, -0.12500, 0.18750, 0.00000, 0.06250, -0.06250, 0.00000, 0.12500, 0.06250, -0.25000, -0.12500, -0.12500, -0.43750, -0.18750, 0.06250, 0.18750, 0.12500, -0.12500, -0.31250, -0.25000, 0.06250, -0.31250, -0.43750, 0.31250, -0.25000, 0.37500, 0.06250, -0.25000, -0.06250, 0.37500, 0.06250, -0.25000, -0.25000, 0.50000, 0.00000, 0.00000, -0.12500, -0.12500, -0.06250, 0.25000, 0.25000, 0.12500, -0.37500, 0.12500, 0.12500, -0.31250, -0.12500, 0.06250, 0.12500, -0.25000, 0.18750, 0.43750, -0.25000, 0.00000, -0.43750, -0.25000, 0.06250, 0.12500, 0.31250, 0.31250, -0.25000, 0.12500, 0.25000, 0.25000, 0.12500, 0.06250, -0.12500, 0.56250, -0.18750, 0.18750, 0.06250, 0.18750, 0.06250, -0.06250, -0.06250, -0.25000, -0.06250, -0.12500, 0.00000, 0.00000, -0.75000, -0.12500, 0.18750, -0.31250, 0.00000, 0.00000, -0.06250, 0.06250, 0.25000, -0.56250, 0.18750, 0.00000, 0.37500, -0.18750, 0.25000, 0.00000, 0.12500, 0.18750, 0.00000, 0.06250, -0.12500, 0.12500, 0.06250, 0.06250, -0.25000, 0.12500, 0.25000, 0.43750, 0.31250, -0.31250, -0.06250, 0.18750, 0.31250, -0.12500, 0.37500, 0.00000, 0.68750, 0.43750, 0.12500, -0.06250, 0.12500, -0.12500, -0.12500, 0.18750, 0.00000, 0.00000, 0.00000, 0.06250, -0.12500, -0.62500, 0.43750, -0.18750, -0.06250, 0.00000, 0.00000, -0.25000, 0.12500, 0.12500, -0.31250, -0.12500, 0.18750, 0.37500, -0.06250, -0.18750, 0.12500, 0.06250, -0.06250, 0.12500, 0.06250, 0.12500, -0.25000, -0.31250, 0.06250, 0.12500, 0.06250, 0.06250, -0.43750, -0.12500, -0.12500, 0.25000, 0.12500, -1.00000, 0.18750, -0.68750, 0.06250, 0.06250, -0.31250, -0.50000, -0.06250, 0.06250, 0.37500, -0.37500, -0.06250, 0.00000, -0.31250, -0.31250, 0.25000, 0.25000, 0.06250, 0.00000, 0.12500, -0.31250, 0.37500, 0.50000, 0.00000, 0.12500, -0.37500, -0.18750, 0.06250, 0.00000, -0.06250, -0.18750, -0.12500, -0.25000, 0.00000, 0.00000, -0.18750, -0.18750, 0.31250, -0.06250, -0.37500, 0.00000, -0.06250, 0.00000, -0.18750, 0.25000, 0.12500, 0.12500, -0.18750, 0.00000, -0.18750, 0.06250, -0.06250, -0.12500, 0.68750, 0.18750, 0.12500, 0.25000, 0.25000, 0.12500, 0.12500, -0.25000, 0.18750, 0.00000, -0.12500, 0.18750, -0.12500, -0.18750, -0.43750, 0.00000, 0.00000, -0.50000, -0.56250, -0.06250, 0.00000, 0.31250, 0.37500, -0.18750, 0.37500, 0.18750, -0.06250, 0.18750, -0.25000, 0.12500, 0.12500, -0.25000, 0.12500, 0.00000, 0.31250, 0.50000, -0.06250, -0.18750, 0.25000, -0.12500, 0.06250, -0.12500, 0.06250, 0.25000, 0.00000, 0.00000, 0.25000, -0.06250, 0.12500, -0.68750, -0.12500, 0.12500, 0.00000, 0.06250, -0.06250, -0.25000, 0.37500, -0.31250, -0.43750, -0.06250, 0.18750, -0.18750, 0.18750, 0.00000, -0.18750, -0.18750, 0.12500, -0.12500, 0.87500, -0.31250, -0.06250, -0.06250, 0.00000, 0.12500, 0.12500, -0.56250, -0.43750, -0.12500, 0.06250, 0.12500, 0.00000, -1.00000, -0.56250, -0.06250, 0.00000, -0.18750, 0.31250, -0.12500, 0.00000, -0.06250, 0.31250, -0.12500, 0.00000, 0.00000, -0.18750, -0.12500, 0.12500, 0.25000, 0.12500, 0.43750, 0.12500, -0.18750, 0.06250, 0.12500, 0.12500, -0.06250, 0.06250, -0.12500, -0.31250, -0.06250, 0.06250, 0.06250, 0.00000, 0.00000, -0.37500, 0.18750, -0.12500, -0.12500, 0.06250, 0.18750, -0.25000, -0.37500, 0.00000, 0.12500, 0.18750, -0.31250, 0.25000, 0.06250, -0.31250, -0.06250, -0.12500, -0.18750, 0.06250, 0.37500, 0.00000, -0.12500, -0.18750, 0.25000, 0.00000, -0.50000, -0.43750, -0.50000, -0.25000, 0.06250, -0.18750, -1.00000, -0.37500, -0.37500, 0.25000, 0.00000, -0.18750, -0.06250, -0.25000, -0.25000, 0.06250, 0.06250, -0.06250, -0.37500, -0.25000, 0.00000, -0.18750, 0.06250, -0.06250, -0.37500, -0.06250, 0.06250, -0.06250, -0.18750, -0.18750, -0.31250, -0.18750, -0.18750, 0.06250, -0.25000, -0.25000, -0.31250, -0.18750, -0.18750, -0.18750, 0.37500, 0.25000, 0.00000, -0.06250, -0.25000, -0.06250, 0.37500, 0.93750, 0.25000, 0.12500, 0.06250, 0.00000, 0.18750, 0.25000, 0.06250, 0.00000, 0.25000, 0.12500, 0.06250, 0.43750, 0.12500, -0.12500, 0.00000, 0.37500, -0.56250, 0.31250, -0.06250, 0.25000, -0.06250, 0.06250, -0.62500, -0.31250, 0.00000, 0.06250, 0.06250, -0.25000, 0.00000, -0.12500, -0.43750, -0.18750, -0.06250, 0.12500, -0.06250, 0.06250, 0.00000, -0.18750, 0.12500, -0.37500, 0.06250, 0.00000, 0.00000, 0.25000, 0.06250, 0.12500, 0.31250, 0.31250, -0.18750, 0.06250, 0.25000, 0.62500, 0.18750, -0.18750, 0.50000, -0.18750, 0.18750, 0.00000, 0.00000, -0.18750, 0.00000, 0.25000, -0.18750, -0.43750, -0.12500, -0.18750, -0.06250, 0.18750, -0.25000, 0.00000, 0.06250, -0.25000, -0.37500, -0.25000, -0.43750, 0.06250, -0.06250, 0.00000, -0.06250, 0.06250, -0.56250, -0.37500, -0.25000, -0.06250, -0.18750, -0.12500, -1.00000, -0.43750, -0.31250, 0.31250, -0.12500, -0.25000, 0.06250, 0.12500, -0.25000, 0.31250, 0.00000, 0.25000, -0.18750, 0.12500, -0.06250, -0.18750, -0.56250, -0.06250, -0.18750, 0.25000, -0.06250, 0.18750, -0.06250, 0.06250, 0.18750, 0.06250, 0.18750, 0.06250, -0.12500, 0.06250, 0.12500, 0.06250, -0.18750, 0.18750, -0.06250, 0.43750, 0.31250, 0.25000, -0.06250, -0.06250, 0.56250, -0.06250, 0.06250, 0.50000, 0.00000, 0.00000, 0.06250, 0.00000, 0.00000, -0.12500, 0.06250, -0.06250, -0.37500, 0.50000, -0.18750, 0.06250, 0.12500, 0.00000, 0.25000, 0.50000, 0.50000, 0.43750, 0.00000, -0.06250, 0.00000, 0.37500, -0.18750, -0.12500, -0.12500, -0.25000, 0.31250, 0.18750, 0.50000, 0.18750, -0.06250, 0.00000, 0.06250, 0.06250, 0.00000, -0.18750, 0.12500, 0.25000, 0.12500, -0.31250, -0.06250, -0.12500, 0.31250, 0.31250, -0.18750, 0.12500, -0.31250, 0.25000, 0.12500, 0.43750, -0.06250, 0.18750, 0.43750, 0.18750, -0.06250, 0.25000, 0.31250, -0.37500, 0.18750, 0.00000, 0.12500, 0.00000, -0.43750, 0.00000, -0.06250, -0.12500, 0.18750, 0.31250, 0.00000, 0.12500, 0.00000, -0.06250, -0.06250, 0.68750, -0.18750, 0.00000, 0.00000, 0.06250, 0.43750, 0.50000, 0.31250, 0.37500, 0.18750, 0.12500, 0.31250, 0.68750, -0.25000, -0.12500, 0.12500, -0.06250, 0.25000, 0.00000, 0.18750, -0.06250, -0.06250, 0.06250, 0.12500, 0.18750, -0.25000, -0.06250, -0.18750, 0.00000, 0.12500, 0.12500, -0.12500, 0.12500, 0.37500, 0.68750, 0.06250, 0.18750, -0.12500, 0.18750, 0.25000, 0.31250, -0.25000, -0.12500, 0.43750, 0.37500, -0.06250, 0.25000, -0.25000, -0.06250, 0.12500, 0.06250, -0.18750, -0.50000, -0.12500, 0.06250, -0.25000, 0.25000, -0.25000, -0.06250, -0.12500, 0.00000, 0.12500, 0.37500, -0.25000, 0.00000, 0.00000, 0.43750, -0.12500, -0.25000, 0.00000, -0.12500, -0.18750, 0.00000, 0.00000, 0.12500, -1.00000, -0.75000, 0.43750, 0.12500, -0.25000, 0.06250, -0.18750, 0.12500, 0.12500, 0.06250, 0.06250, 0.00000, 0.00000, 0.00000, 0.12500, -0.06250, 0.18750, -0.12500, 0.06250, 0.31250, -0.12500, 0.06250, -0.06250, -0.12500, 0.25000, -0.06250, -0.12500, 0.00000, 0.31250, -0.06250, 0.37500, 0.06250, -0.31250, -0.25000, 0.00000, -0.12500, -0.31250, -0.06250, 0.31250, 0.12500, -0.12500, -0.06250, 0.25000, 0.00000, 0.00000, 0.00000, 0.12500, 0.18750, -0.25000, 0.31250, -0.18750, 0.06250, -0.18750, -0.12500, -0.18750, 0.18750, 0.12500, 0.12500, -0.50000, 0.25000, -0.75000, -0.18750, 0.12500, 0.00000, -0.37500, 0.31250, -0.18750, 0.25000, 0.06250, -0.31250, -0.12500, 0.00000, -0.25000, 0.12500, 0.31250, -0.06250, -0.12500, 0.31250, 0.18750, 0.25000, 0.00000, -0.12500, 0.00000, 0.00000, -0.25000, 0.25000, 0.12500, -0.18750, 0.06250, -0.25000, 0.06250, -0.12500, -0.06250, 0.00000, 0.31250, 0.00000, 0.06250, -0.31250, -0.06250, -0.06250, -0.25000, -0.50000, 0.00000, -0.12500, -0.18750, -0.12500, -0.12500, -0.31250, -0.50000, 0.18750, 0.00000, 0.31250, -0.25000, 0.12500, -0.56250, -0.06250, 0.31250, -0.31250, 0.06250, -0.31250, 0.00000, 0.00000, 0.06250, 0.00000, 0.25000, -0.06250, -0.18750, 0.06250, -0.25000, -0.06250, -0.12500, 0.31250, 0.18750, 0.18750, -0.06250, 0.12500, -0.06250, 0.18750, 0.18750, -0.06250, 0.06250, 0.12500, -0.56250, 0.31250, -0.25000, 0.12500, 0.06250, 0.37500, 0.25000, 0.18750, 0.18750, 0.12500, -0.37500, -0.31250, 0.18750, -0.12500, 0.31250, -0.06250, -0.06250, 0.25000, -0.50000, 0.12500, 0.06250, 0.25000, -0.43750, 0.06250, 0.43750, -0.06250, 0.25000, 0.50000, 0.12500, -0.06250, 0.06250, 0.00000, 0.25000, 0.12500, -0.25000, 0.18750, 0.50000, 0.12500, 0.00000, 0.00000, 0.18750, 0.00000, 0.25000, -0.18750, -0.31250, 0.00000, -0.62500, 0.25000, -0.18750, 0.06250, 0.25000, 0.12500, -0.18750, -0.18750, 0.12500, 0.06250, -0.06250, -0.18750, -0.31250, -0.06250, 0.18750, -0.18750, 0.18750, -0.12500, -0.06250, 0.06250, -0.06250, 0.31250, 0.06250, -0.18750, 0.06250, 0.31250, -0.18750, 0.00000, 0.31250, 0.18750, 0.68750, 0.31250, 0.12500, 0.06250, -0.12500, 0.31250, 0.06250, -0.18750, -0.12500, -0.18750, 0.25000, -0.12500, -0.12500, -0.18750, 0.06250, -0.25000, -0.12500, 0.37500, 0.06250, 0.06250, 0.25000, -0.25000, 0.12500, 0.18750, -0.06250, 0.18750, 0.25000, 0.18750, -0.18750, -0.18750, 0.00000, -0.06250, -0.12500, -0.18750, -0.12500, 0.43750, -0.43750, 0.06250, 0.12500, -0.06250, -0.37500, 0.18750, 0.06250, 0.12500, 0.43750, -0.37500, -0.12500, 0.06250, 0.00000, 0.06250, -0.18750, 0.31250, -0.25000, 0.25000, 0.00000, 0.06250, -0.18750, 0.18750, -0.56250, 0.00000, -0.12500, 0.12500, -0.06250, -0.18750, -0.62500, 0.56250, 0.00000, 0.00000, -0.50000, 0.00000, 0.00000, 0.00000, -0.06250, -0.18750, -0.31250, -0.06250, -0.81250, -0.37500, -0.37500, -0.18750, -0.31250, -0.25000, 0.00000, -0.06250, -0.06250, -0.43750, -0.12500, -0.06250, 0.00000, -0.06250, -0.18750, -0.06250, -0.06250, 0.00000, -0.18750, -0.06250, 0.06250, 0.50000, 0.25000, -0.12500, -0.12500, 0.18750, 0.43750, 0.00000, -0.25000, -0.06250, 0.06250, -0.06250, -0.18750, -0.06250, -0.06250, -0.31250, -0.25000, -0.25000, -0.18750, 0.12500, 0.31250, -0.37500, 0.06250, -0.06250, -0.18750, -0.18750, -0.12500, -0.50000, -0.06250, 0.25000, -0.12500, -0.12500, -0.06250, 0.12500, 0.00000, 0.31250, -0.18750, -0.12500, -0.37500, 0.06250, -0.06250, 0.12500, 0.06250, -0.18750, 0.12500, -0.12500, -0.18750, 0.06250, 0.18750, -0.18750, 0.06250, -0.06250, -0.18750, 0.12500, -0.31250, -0.31250, 0.50000, -0.18750, -0.12500, -0.18750, -0.37500, 0.00000, 0.18750, 0.43750, 0.37500, 0.43750, -0.18750, -0.06250, 0.00000, -0.25000, 0.18750, 0.18750, 0.00000, -0.18750, 0.00000, -0.06250, -0.25000, -0.37500, 0.06250, 0.37500, 0.12500, -0.12500, 0.31250, -0.25000, 0.50000, 0.12500, 0.06250, 0.25000, -0.18750, -0.18750, 0.06250, 0.25000, 0.25000, 0.31250, 0.25000, -0.12500, 0.37500, 0.06250, 0.25000, 0.18750, 0.62500, 0.37500, 0.31250, 0.25000, 0.12500, -0.06250, 0.25000, 0.12500, -0.06250, 0.18750, -0.31250, 0.06250, -0.18750, 0.18750, -0.12500, 0.12500, 0.06250, -0.12500, 0.56250, 0.12500, -0.12500, -0.06250, 0.25000, 0.25000, 0.43750, 0.12500, -0.31250, -0.18750, 0.18750, -0.62500, 0.56250, 0.06250, 0.12500, 0.12500, -0.56250, -0.43750, -0.12500, -0.31250, 0.00000, -0.12500, -0.06250, 0.25000, 0.00000, 0.00000, 0.12500, 0.75000, 0.00000, 0.18750, 0.12500, 0.00000, 0.06250, 0.00000, -0.12500, 0.06250, 0.37500, -0.06250, -0.12500, 0.12500, -0.18750, 0.06250, -0.18750, 0.00000, 0.18750, -0.25000, -0.06250, -0.18750, -0.06250, -0.31250, 0.00000, 0.00000, -0.06250, 0.00000, 0.12500, 0.25000, -0.37500, 0.00000, -0.06250, -0.12500, 0.00000, -0.12500, 0.12500, 0.31250, -0.06250, -0.18750, -0.25000, 0.25000, 0.25000, -0.25000, -0.18750, 0.12500, -0.12500, 0.18750, 0.12500, 0.00000, -0.37500, -0.43750, 0.31250, 0.12500, -0.93750, -0.81250, -0.12500, 0.18750, 0.93750, 0.31250, 0.00000, 0.00000, -0.18750, -0.12500, -0.31250, -0.06250, -0.06250, -0.18750, 0.18750, -0.18750, -0.06250, -0.06250, 0.18750, 0.00000, 0.00000, 0.00000, 0.18750, 0.06250, 0.00000, 0.31250, 0.25000, -0.06250, 0.18750, 0.06250, -0.18750, -0.31250, -0.56250, 0.12500, -0.37500, 0.31250, 0.00000, -0.18750, 0.12500, -0.06250, 0.31250, -0.12500, 0.12500, -0.12500, 0.00000, -0.18750, 0.12500, 0.31250, 0.18750, 0.12500, -0.18750, 0.12500, -0.18750, 0.43750, 0.37500, 0.06250, 0.00000, -0.18750, 0.87500, 0.37500, 0.25000, 0.25000, -0.06250, -0.25000, 0.43750, 0.56250, -0.25000, 0.31250, -0.31250, 0.37500, 0.18750, 0.25000, 0.06250, 0.12500, 0.18750, 0.50000, 0.06250, -0.12500, -0.25000, -0.06250, -0.43750, -0.43750, 0.06250, 0.00000, 0.00000, 0.06250, 0.18750, 0.00000, 0.00000, 0.25000, -0.12500, -0.12500, -0.12500, -0.18750, 0.06250, 0.06250, 0.18750, 0.43750, 0.06250, -0.06250, -0.06250, 0.18750, -0.56250, -0.31250, -0.06250, 0.00000, 0.06250, -0.25000, -0.06250, -0.25000, -0.06250, -0.06250, 0.06250, -0.25000, 0.06250, -0.25000, 0.00000, -0.12500, 0.31250, -0.06250, 0.18750, -0.50000, -0.18750, 0.12500, -0.06250, 0.00000, -0.06250, 0.18750, 0.00000, 0.25000, 0.00000, -0.12500, 0.00000, -0.12500, -0.31250, -0.31250, 0.12500, -0.31250, -0.18750, -0.06250, -0.06250, -0.50000, 0.06250, -0.43750, -0.06250, 0.18750, -0.31250, -0.18750, 0.06250, -0.25000, 0.12500, 0.12500, -0.37500, 0.25000, 0.06250, -0.62500, 0.50000, -0.06250, -0.37500, 0.25000, -0.18750, 0.12500, 0.06250, -0.06250, 0.18750, 0.31250, 0.00000, -0.06250, 0.31250, -0.25000, -0.06250, 0.06250, 0.06250, -0.25000, -0.31250, 0.06250, 0.12500, 0.25000, 0.06250, -0.31250, 0.12500, -0.25000, -0.12500, -0.25000, 0.25000, -0.25000, 0.25000, 0.00000, 0.31250, -0.31250, 0.25000, 0.00000, -0.37500, -0.06250, 0.37500, -0.06250, -0.31250, -0.50000, -0.25000, -0.06250, 0.12500, 0.37500, 0.12500, -0.12500, 0.37500, 0.12500, 0.50000, -0.12500, 0.25000, -0.12500, -0.25000, 0.18750, 0.31250, -0.25000, 0.12500, -0.25000, -0.12500, -0.25000, 0.06250, -0.12500, -0.18750, -0.12500, -0.06250, 0.12500, 0.12500, -0.12500, 0.12500, 0.18750, 0.18750, 0.06250, 0.00000, -0.12500, 0.25000, 0.56250, 0.12500, -0.25000, 0.12500, -0.06250, -0.06250, -0.12500, -0.12500, 0.00000, 0.18750, 0.31250, 0.12500, -0.18750, 0.06250, 0.00000, -0.06250, -0.12500, -0.68750, 0.18750, -0.06250, -0.18750, 0.00000, -0.25000, 0.18750, 0.06250, -0.25000, -0.31250, 0.25000, 0.18750, 0.06250, -0.12500, -0.06250, -0.18750, -0.25000, -0.37500, -0.37500, -0.31250, 0.06250, -0.18750, -0.06250, -0.12500, 0.00000, 0.12500, -0.31250, 0.31250, 0.06250, 0.06250, 0.37500, 0.06250, -0.18750, 0.00000, -0.18750, -0.06250, -0.18750, -0.25000, 0.43750, -0.18750, 0.00000, 0.06250, 0.00000, 0.00000, 0.12500, -0.18750, -0.18750, -0.06250, -0.25000, 0.18750, 0.12500, 0.00000, -0.06250, 0.37500, 0.00000, 0.37500, -0.06250, 0.25000, -0.12500, -0.31250, -0.06250, 0.06250, 0.50000, 0.06250, -0.62500, -0.37500, -0.31250, 0.00000, 0.50000, 0.06250, -0.87500, -0.62500, -0.25000, -0.12500, 0.18750, -0.12500, -0.25000, -0.25000, -0.06250, -0.12500, 0.31250, 0.50000, -0.25000, -0.06250, -0.06250, 0.31250, 0.12500, 0.00000, -0.18750, 0.06250, 0.00000, 0.18750, -0.18750, -0.12500, -0.18750, 0.00000, -0.12500, -0.18750, -0.18750, -0.12500, -0.31250, 0.18750, -0.56250, -0.06250, 0.06250, -0.18750, 0.06250, 0.00000, 0.06250, -0.18750, 0.00000, -0.62500, -0.06250, 0.12500, 0.25000, 0.25000, 0.12500, -0.06250, 0.18750, -0.18750, 0.37500, 0.18750, 0.37500, 0.31250, 0.06250, -0.06250, -0.12500, -0.25000, 0.25000, -0.43750, 0.12500, 0.12500, -0.06250, 0.56250, -0.18750, -0.43750, -0.18750, 0.31250, 0.12500, 0.25000, 0.25000, 0.12500, 0.31250, 0.00000, 0.06250, 0.18750, 0.00000, 0.06250, -0.18750, -0.06250, 0.43750, -0.37500, 0.12500, -0.06250, 0.00000, 0.00000, -0.18750, 0.18750, -0.12500, 0.12500, 0.00000, 0.31250, -0.12500, -0.31250, 0.00000, -0.25000, -0.68750, -0.06250, 0.06250, -0.06250, -0.18750, 0.12500, -0.31250, -0.06250, -0.50000, 0.18750, -0.06250, -0.06250, -0.25000, -0.25000, -0.06250, 0.18750, 0.12500, -0.06250, -0.31250, -0.37500, 0.00000, -0.37500, -0.18750, -0.18750, 0.06250, 0.12500, -0.81250, 0.06250, -0.12500, -0.12500, -0.18750, -0.18750, -0.93750, -0.25000, 0.06250, 0.25000, -0.12500, -0.06250, -0.31250, -0.06250, -0.25000, 0.00000, -0.18750, 0.00000, -0.12500, -0.18750, 0.31250, -0.31250, -0.06250, -0.06250, -0.31250, 0.25000, -0.06250, -0.37500, 0.12500, 0.06250, 0.00000, -0.25000, 0.12500, -0.37500, -0.25000, 0.37500, 0.31250, -0.06250, 0.06250, 0.18750, 0.18750, 0.25000, -0.06250, 0.00000, -0.62500, 0.12500, -0.06250, 0.12500, -0.31250, -0.12500, -0.18750, -0.62500, 0.31250, 0.00000, -0.06250, -0.43750, -0.06250, 0.25000, -0.18750, 0.12500, 0.31250, 0.25000, 0.12500, -0.50000, -0.06250, -0.12500, 0.12500, 0.12500, 0.25000, -0.12500, -0.12500, -0.06250, 0.25000, 0.18750, 0.12500, 0.12500, 0.06250, 0.06250, -0.37500, -0.12500, 0.12500, -0.37500, -0.25000, -0.50000, -0.06250, -0.50000, 0.00000, 0.18750, -0.06250, -0.12500, 0.00000, -0.18750, 0.37500, -0.18750, 0.06250, 0.37500, 0.06250, -0.18750, 0.25000, -0.25000, 0.00000, 0.06250, 0.25000, -0.18750, -0.06250, -0.12500, 0.06250, 0.12500, 0.31250, 0.25000, -0.06250, 0.25000, 0.18750, -0.18750, 0.06250, -0.06250, 0.06250, 0.50000, -0.25000, -0.06250, 0.18750, 0.25000, 0.37500, -0.12500, 0.18750, 0.06250, 0.06250, 0.18750, -0.37500, -0.06250, -0.12500, -0.12500, 0.00000, 0.31250, -0.62500, -0.43750, -0.06250, 0.25000, 0.37500, 0.06250, -0.06250, -0.06250, -0.18750, -0.25000, 0.00000, -0.25000, -0.18750, -0.06250, 0.12500, -0.25000, -0.25000, 0.12500, -0.37500, -0.12500, 0.12500, 0.25000, 0.06250, 0.06250, 0.31250, 0.25000, 0.25000, -0.12500, 0.37500, -0.12500, 0.18750, -0.06250, -0.62500, -0.18750, 0.18750, -0.18750, 0.06250, -0.06250, -0.18750, -0.43750, 0.37500, -0.18750, 0.06250, 0.00000, 0.12500, 0.06250, -0.25000, -0.18750, -0.25000, -0.06250, 0.18750, -0.18750, -0.06250, -0.12500, -0.06250, 0.06250, 0.06250, 0.18750, -0.93750, 0.68750, -0.62500, -0.12500, -0.25000, 0.25000, 0.00000, 0.37500, -0.12500, 0.12500, 0.00000, -0.18750, 0.12500, -0.31250, 0.12500, -0.37500, -0.06250, -0.50000, -0.25000, -0.12500, 0.12500, -0.18750, -0.06250, 0.12500, -0.43750, 0.12500, -0.06250, 0.06250, 0.06250, -0.18750, -0.31250, -0.06250, 0.06250, -0.31250, 0.12500, 0.25000, -0.12500, 0.25000, 0.18750, 0.18750, 0.18750, -0.18750, -0.12500, 0.31250, -0.37500, -0.31250, -0.12500, 0.25000, -0.25000, -0.06250, -0.12500, -0.37500, 0.06250, -0.31250, 0.12500, 0.18750, -0.25000, -0.18750, -0.06250, 0.50000, 0.25000, -0.18750, -0.31250, -0.12500, -0.06250, -0.25000, -0.18750, 0.31250, 0.06250, -0.31250, -0.31250, -0.06250, 0.18750, -0.12500, 0.00000, 0.18750, 0.06250, -0.06250, -0.12500, -0.37500, -0.25000, 0.18750, -0.25000, 0.18750, -0.06250, -0.37500, -0.50000, -0.31250, 0.06250, -0.06250, -0.31250, -0.37500, 0.00000, -0.25000, 0.25000, 0.25000, -0.18750, 0.37500, -0.50000, -0.12500, -0.06250, -0.18750, 0.12500, -0.43750, 0.18750, -0.12500, 0.00000, 0.06250, 0.18750, -0.12500, 0.06250, 0.43750, 0.00000, 0.12500, 0.25000, -0.12500, -0.06250, 0.00000, -0.37500, 0.37500, -0.06250, 0.56250, 0.06250, -0.12500, -0.37500, 0.12500, -0.12500, 0.25000, -0.43750, 0.43750, -0.43750, 0.06250, 0.12500, 0.00000, -0.06250, -0.25000, 0.37500, -0.18750, 0.25000, -0.18750, 0.06250, 0.25000, -0.06250, 0.12500, 0.12500, -0.25000, -0.12500, -0.12500, -0.18750, 0.06250, -0.25000, -0.25000, 0.12500, 0.31250, -0.50000, 0.25000, 0.00000, 0.06250, 0.50000, -0.18750, 0.25000, 0.37500, -0.12500, 0.18750, 0.25000, -0.25000, 0.18750, -0.06250, -0.12500, -0.18750, -0.18750, -0.12500, 0.00000, 0.37500, 0.00000, 0.06250, 0.00000, -0.06250, 0.06250, -0.18750, 0.00000, -0.31250, -0.06250, -0.06250, 0.06250, 0.68750, -0.12500, 0.00000, -0.06250, -0.12500, 0.00000, 0.12500, -0.81250, -0.12500, -0.43750, 0.06250, -0.18750, 0.12500, -1.00000, -0.50000, 0.12500, -0.25000, -0.25000, 0.06250, -0.12500, 0.37500, 0.25000, -0.06250, -0.12500, -0.25000, -0.31250, -0.12500, -0.25000, 0.12500, 0.00000, -0.12500, -0.18750, -0.25000, -0.06250, 0.25000, -0.12500, -0.06250, 0.43750, 0.18750, 0.00000, 0.12500, 0.25000, 0.25000, 0.18750, -0.12500, 0.12500, -0.12500, -0.25000, -0.06250, 0.06250, -0.06250, -0.06250, -0.31250, -0.06250, -0.37500, -0.37500, -0.12500, 0.00000, -0.25000, -0.06250, 0.06250, -0.06250, -0.25000, -0.12500, -0.18750, -0.18750, -0.12500, 0.00000, 0.37500, 0.00000, -0.31250, 0.06250, -0.25000, 0.06250, 0.00000, 0.31250, -0.12500, -1.00000, -0.56250, 0.06250, -0.12500, 0.00000, 0.12500, 0.31250, -0.12500, -0.18750, 0.06250, -0.25000, -0.18750, -0.25000, -0.12500, 0.12500, -0.12500, -0.06250, 0.00000, -0.12500, -0.06250, 0.18750, -0.18750, 0.00000, -0.06250, 0.06250, -0.12500, 0.00000, -0.12500, -0.18750, -0.25000, -0.12500, 0.00000, -0.18750, 0.06250, -0.06250, -0.18750, -0.31250, 0.06250, 0.12500, -0.06250, 0.12500, -0.25000, 0.18750, -0.18750, 0.06250, -0.12500, -0.18750, 0.00000, 0.18750, 0.00000, 0.25000, -0.06250, 0.06250, -0.18750, -0.18750, -0.18750, 0.06250, -0.37500, -0.37500, -0.37500, -0.18750, 0.06250, -0.12500, -0.12500, -1.00000, -0.62500, 0.18750, -0.18750, -0.18750, 0.18750, 0.00000, 0.12500, -0.18750, -0.06250, -0.06250, -0.25000, -0.06250, 0.00000, -0.12500, 0.06250, -0.12500, -0.25000, -0.18750, -0.12500, 0.00000, -0.12500, 0.25000, -0.18750, 0.12500, -0.06250, 0.06250, 0.06250, 0.06250, -0.25000, 0.18750, 0.00000, 0.12500, -0.12500, 0.00000, 0.18750, 0.43750, 0.00000, -0.25000, 0.00000, -0.31250, -0.31250, -0.06250, -0.25000, -0.25000, 0.18750, 0.75000, -0.12500, -0.43750, 0.12500, -0.37500, 0.06250, 0.06250, 0.43750, 0.06250, 0.06250, 0.62500, 0.06250, 0.18750, 0.31250, 0.06250, -0.31250, 0.12500, 0.31250, 0.12500, -0.12500, -0.06250, 0.31250, 0.06250, 0.18750, 0.25000, 0.25000, -0.12500, -0.06250, 0.06250, 0.18750, 0.00000, 0.00000, 0.25000, 0.00000, 0.06250, -0.25000, -0.12500, 0.00000, -0.18750, 0.12500, -0.18750, 0.37500, -0.18750, 0.18750, 0.00000, -0.06250, -0.12500, 0.37500, 0.00000, 0.12500, -0.37500, 0.18750, 0.18750, -0.50000, 0.25000, -0.12500, -0.06250, 0.25000, -0.43750, 0.12500, -0.12500, -0.31250, -0.12500, 0.06250, -0.06250, 0.31250, -0.06250, 0.12500, -0.12500, 0.62500, 0.31250, -0.06250, -0.12500, 0.00000, 0.00000, -0.18750, 0.18750, 0.00000, -0.12500, -0.18750, -0.12500, 0.18750, -0.31250, -0.50000, 0.37500, 0.00000, 0.06250, 0.43750, 0.06250, 0.43750, 0.00000, 0.25000, 0.18750, 0.00000, 0.06250, 0.25000, -0.37500, 0.18750, 0.06250, 0.06250, 0.06250, -0.18750, 0.06250, -0.37500, -0.06250, 0.06250, -0.31250, -0.37500, -0.06250, 0.00000, 0.25000, -0.18750, -0.06250, 0.06250, -0.18750, 0.25000, 0.12500, -0.18750, -0.12500, -0.25000, -0.06250, 0.12500, 0.06250, -0.25000, -0.12500, 0.12500, -0.31250, -0.06250, 0.00000, 0.18750, 0.31250, -0.25000, -0.25000, -0.06250, 0.31250, 0.18750, 0.12500, -0.37500, -0.37500, 0.00000, 0.50000, -0.06250, 0.43750, 0.31250, -0.18750, -0.06250, -0.31250, -0.06250, 0.25000, 0.00000, -0.18750, -0.12500, -0.31250, 0.12500, 0.50000, 0.25000, 0.06250, 0.18750, 0.12500, 0.31250, 0.12500, 0.12500, -0.25000, 0.00000, -0.06250, -0.25000, 0.31250, 0.18750, -0.06250, 0.12500, -0.18750, -0.12500, -0.43750, -0.06250, 0.37500, 0.37500, -0.06250, -0.12500, -0.31250, -0.18750, -0.25000, 0.25000, 0.31250, 0.31250, -0.12500, 0.06250, 0.37500, -0.06250, 0.06250, -0.18750, 0.25000, 0.00000, 0.18750, 0.25000, -0.25000, -0.06250, 0.12500, 0.25000, 0.00000, -0.18750, -0.37500, -0.06250, 0.37500, 0.31250, -0.25000, 0.31250, -0.43750, 0.00000, 0.06250, 0.43750, 0.37500, 0.50000, -0.31250, 0.37500, -0.06250, 0.25000, 0.25000, -0.12500, -0.06250, 0.00000, 0.31250, -0.25000, 0.12500, -0.06250, -0.12500, 0.37500, -0.12500, -0.31250, -0.18750, 0.31250, -0.43750, 0.50000, -0.06250, -0.06250, 0.00000, 0.00000, -0.06250, -0.18750, -0.18750, 0.12500, -0.25000, 0.18750, 0.12500, 0.25000, 0.00000, -0.25000, -0.06250, 0.12500, -0.31250, -0.25000, -0.31250, -0.25000, -0.18750, -0.12500, 0.31250, -0.25000, 0.31250, 0.12500, 0.00000, 0.00000, -0.37500, 0.00000, -0.25000, -0.43750, -0.25000, -0.12500, -0.18750, -0.25000, -0.06250, 0.00000, 0.25000, 0.00000, 0.12500, -0.18750, -1.00000, -0.12500, 0.12500, 0.12500, -0.25000, -0.12500, 0.25000, -0.31250, -0.06250, -0.25000, -0.12500, -0.31250, 0.12500, 0.25000, 0.00000, 0.06250, 0.12500, -0.18750, -0.06250, -0.25000, -0.06250, -0.31250, 0.12500, -0.43750, -0.18750, 0.00000, 0.12500, 0.18750, 0.00000, -0.37500, -0.18750, -0.18750, -0.37500, 0.31250, 0.00000, 0.31250, -0.06250, 0.50000, 0.00000, 0.06250, 0.18750, 0.56250, 0.18750, 0.18750, 0.06250, 0.00000, 0.31250, 0.06250, 0.25000, -0.18750, 0.06250, 0.00000, -0.25000, 0.25000, -0.12500, 0.06250, 0.25000, 0.56250, -0.25000, 0.37500, -0.18750, -0.12500, 0.00000, -0.12500, -0.37500, 0.50000, -0.37500, 0.06250, 0.25000, -0.43750, -0.18750, -0.12500, 0.31250, 0.06250, 0.06250, 0.25000, 0.06250, 0.00000, 0.12500, 0.12500, -0.12500, 0.06250, 0.00000, 0.18750, -0.06250, 0.00000, -0.37500, -0.06250, -0.31250, 0.12500, -0.12500, 0.06250, 0.06250, 0.56250, -0.12500, -0.06250, 0.62500, 0.00000, 0.12500, -0.25000, 0.25000, 0.00000, -0.18750, 0.50000, -0.18750, -0.43750, -0.06250, -0.12500, -0.31250, 0.37500, -0.12500, 0.18750, 0.18750, 0.06250, -0.12500, -0.25000, -0.06250, 0.12500, 0.25000, -0.25000, -0.18750, 0.00000, 0.43750, -0.31250, 0.37500, -0.06250, 0.00000, 0.06250, -0.06250, 0.00000, -0.06250, -0.31250, -0.06250, -0.18750, -0.12500, 0.06250, 0.18750, 0.12500, -0.25000, 0.06250, 0.37500, 0.00000, -0.12500, -0.12500, 0.31250, 0.56250, 0.56250, -0.18750, 0.43750, -0.06250, 0.00000, -0.18750, -0.31250, 0.12500, -0.31250, -0.43750, 0.06250, -0.25000, -0.12500, -0.06250, -0.18750, -0.12500, -0.06250, -0.31250, 0.12500, 0.06250, 0.37500, -0.12500, 0.12500, 0.25000, 0.06250, -0.18750, 0.12500, 0.00000, -0.06250, -0.25000, -0.12500, 0.12500, -0.25000, 0.25000, 0.06250, -0.31250, -0.06250, 0.00000, 0.25000, 0.31250, -1.00000, -0.43750, 0.12500, -0.25000, -0.06250, -0.06250, -1.00000, -0.62500, 0.12500, -0.18750, -0.18750, -0.37500, 0.00000, 0.06250, 0.25000, -0.25000, 0.31250, 0.06250, 0.18750, 0.06250, -0.12500, 0.00000, 0.12500, -0.18750, 0.00000, 0.06250, 0.00000, -0.12500, -0.18750, -0.18750, 0.37500, -0.18750, -0.06250, 0.12500, -0.31250, -0.18750, 0.06250, -0.12500, -0.37500, -0.06250, 0.00000, 0.06250, -0.12500, 0.56250, 0.25000, 0.56250, 0.06250, -0.25000, 0.68750, -0.06250, 0.31250, 0.25000, -0.12500, -0.12500, -0.12500, 0.43750, 0.37500, -0.06250, 0.12500, 0.00000, 0.06250, -0.06250, -0.12500, 0.18750, 0.06250, 0.18750, -0.12500, -0.25000, -0.06250, 0.18750, 0.25000, 0.25000, -0.25000, 0.18750, -0.06250, -0.37500, -0.06250, 0.06250, 0.00000, 0.18750, -0.12500, -0.06250, 0.12500, -0.18750, 0.87500, 0.12500, 0.12500, -0.12500, 0.25000, 0.00000, -0.06250, 0.12500, 0.25000, -0.12500, 0.00000, -0.12500, 0.06250, -0.18750, -0.06250, -0.12500, 0.06250, -0.06250, 0.18750, -0.25000, -0.12500, -0.25000, 0.37500, 0.12500, 0.12500, 0.25000, -0.18750, -0.31250, -0.06250, 0.12500, 0.37500, 0.12500, -0.06250, 0.00000, -0.12500, 0.12500, -0.18750, -0.12500, -0.18750, 0.43750, -0.12500, -0.06250, -0.31250, 0.18750, -0.12500, -0.25000, -0.12500, 0.25000, -0.06250, 0.25000, -0.25000, 0.00000, 0.18750, -0.12500, -0.31250, 0.00000, 0.06250, -0.12500, -0.25000, 0.18750, -0.06250, 0.18750, 0.06250, 0.87500, 0.31250, -0.06250, 0.12500, -0.06250, 0.37500, 0.18750, -0.18750, -0.31250, -0.06250, 0.18750, 0.18750, -0.25000, -0.31250, 0.25000, 0.37500, 0.37500, 0.31250, 0.06250, 0.00000, 0.31250, 0.25000, 0.50000, 0.06250, 0.31250, -0.43750, 0.00000, 0.37500, 0.50000, 0.06250, -0.18750, 0.00000, -0.18750, -0.25000, -0.37500, -0.06250, -0.50000, 0.50000, -0.18750, -0.12500, 0.00000, 0.00000, 0.06250, -0.06250, -0.06250, 0.12500, -0.12500, 0.06250, 0.12500, 0.12500, -0.31250, 0.06250, -0.06250, 0.18750, -0.37500, -0.25000, -0.31250, 0.00000, -0.31250, -0.12500, 0.00000, 0.06250, 0.12500, -0.25000, -0.31250, 0.18750, -0.25000, -0.18750, 0.25000, -0.06250, -0.06250, 0.00000, -0.12500, -0.12500, -0.25000, 0.06250, 0.25000, 0.06250, -0.37500, -0.12500, -0.12500, 0.00000, -0.06250, -0.06250, 0.00000, 0.06250, -0.06250, -0.50000, 0.06250, 0.06250, 0.12500, 0.00000, -0.31250, 0.00000, 0.18750, -0.06250, 0.12500, 0.25000, 0.18750, -0.18750, 0.12500, -0.56250, -0.12500, 0.00000, 0.12500, 0.25000, -0.43750, 0.00000, 0.18750, -0.06250, -0.31250, -0.12500, -0.12500, -0.18750, 0.06250, -0.25000, 0.12500, -0.18750, 0.00000, -0.12500, -0.12500, -0.12500, 0.00000, 0.00000, -0.12500, 0.06250, 0.00000, 0.00000, 0.12500, 0.37500, 0.37500, -0.18750, -0.50000, -0.25000, -0.06250, 0.06250, -0.37500, 0.18750, 0.25000, -0.12500, -0.18750, -1.00000, 0.06250, -0.31250, 0.18750, -0.12500, -0.93750, -0.06250, 0.18750, -0.06250, -0.37500, -0.06250, -0.12500, 0.12500, 0.12500, -0.56250, 0.12500, 0.06250, -0.12500, 0.06250, 0.00000, -0.25000, -0.18750, -0.18750, 0.25000, 0.00000, -0.12500, 0.18750, -0.25000, -0.12500, 0.06250, -0.12500, -0.06250, 0.25000, -0.18750, -0.31250, -0.12500, 0.12500, -0.37500, -0.68750, -0.18750, 0.25000, -0.18750, 0.06250, 0.00000, -0.31250, 0.06250, -0.12500, 0.06250, 0.00000, 0.18750, 0.00000, 0.00000, -0.25000, -0.06250, 0.43750, 0.00000, 0.06250, 0.06250, -0.12500, -0.37500, -0.31250, 0.06250, -0.56250, -0.43750, -0.12500, 0.00000, -0.25000, -0.43750, 0.06250, 0.12500, -0.18750, -0.25000, 0.12500, 0.31250, 0.00000, 0.12500, -0.06250, -0.18750, 0.31250, 0.06250, 0.12500, 0.12500, -0.25000, 0.56250, 0.06250, 0.37500, 0.18750, -0.12500, -0.25000, -0.06250, 0.18750, 0.00000, 0.12500, 0.25000, -0.06250, 0.06250, -0.87500, -0.31250, -0.18750, -0.25000, 0.37500, 0.25000, -1.00000, -0.62500, -0.06250, -0.06250, 0.31250, -0.31250, -0.06250, -0.18750, 0.25000, -0.31250, -0.37500, 0.00000, -0.06250, -0.62500, 0.50000, 0.06250, 0.12500, 0.12500, 0.31250, -0.06250, -0.06250, 0.00000, 0.12500, -0.31250, -0.12500, -0.06250, 0.06250, -0.06250, -0.50000, 0.06250, -0.25000, 0.06250, -0.31250, 0.06250, 0.06250, 0.06250, 0.00000, 0.00000, 0.06250, 0.12500, -0.50000, -0.62500, -0.12500, -0.25000, -0.06250, 0.18750, 0.00000, 0.25000, -0.12500, 0.12500, -0.18750, 0.06250, -0.12500, -0.25000, 0.00000, -0.18750, 0.12500, 0.00000, 0.06250, 0.06250, -0.31250, -0.18750, -0.25000, 0.43750, -0.93750, -0.56250, 0.25000, -0.06250, -0.18750, 0.18750, 0.00000, 0.12500, 0.06250, 0.18750, 0.18750, -0.18750, -0.12500, -0.18750, 0.06250, 0.18750, -0.18750, -0.25000, -0.25000, -0.25000, -0.06250, -0.06250, -0.06250, 0.12500, -0.06250, -0.25000, 0.00000, 0.06250, 0.00000, 0.06250, 0.25000, -0.25000, -0.31250, -0.37500, 0.06250, -0.12500, 0.06250, -0.31250, 0.25000, -0.06250, 0.18750, 0.50000, 0.12500, 0.00000, 0.00000, -0.06250, -0.18750, 0.00000, -0.43750, 0.12500, 0.12500, -0.06250, 0.18750, -0.12500, -0.43750, 0.12500, -0.25000, 0.25000, -0.50000, 0.18750, -0.62500, -0.18750, -0.18750, 0.06250, -0.18750, 0.43750, -0.06250, -0.37500, -0.25000, -0.31250, 0.12500, -0.06250, -0.12500, -0.12500, -0.18750, -0.06250, 0.25000, -0.12500, 0.00000, 0.25000, -0.18750, 0.18750, 0.37500, -0.25000, -0.12500, 0.37500, 0.00000, 0.25000, 0.43750, 0.06250, 0.18750, 0.18750, -0.18750, -0.12500, 0.18750, -0.06250, 0.12500, -0.06250, -0.06250, -0.56250, 0.00000, 0.06250, 0.12500, 0.12500, -0.50000, -0.18750, -0.06250, -0.06250, 0.00000, 0.12500, 0.00000, -0.25000, -0.18750, -0.12500, -0.06250, 0.00000, 0.18750, 0.12500, -0.12500, 0.12500, -0.18750, 0.12500, 0.12500, -0.12500, -0.12500, -0.12500, -0.06250, -0.25000, -1.00000, -0.75000, -0.56250, 0.00000, 0.18750, 0.18750, 0.12500, -0.18750, -0.18750, 0.25000, -0.37500, 0.00000, 0.00000, 0.00000, -0.06250, 0.06250, -0.18750, 0.12500, 0.37500, 0.12500, -0.25000, 0.12500, -0.25000, 0.12500, -0.12500, 0.12500, 0.00000, 0.31250, -0.12500, -0.31250, -0.06250, -0.06250, 0.06250, -0.18750, -0.18750, 0.12500, -0.50000, 0.00000, -0.37500, 0.06250, 0.18750, -0.12500, 0.18750, 0.50000, 0.18750, 0.12500, -0.06250, -0.31250, 0.25000, -0.12500, -0.18750, 0.12500, -0.12500, 0.25000, -0.06250, 0.00000, -0.18750, 0.12500, 0.25000, -0.50000, -0.18750, 0.56250, 0.00000, 0.06250, 0.06250, 0.25000, 0.18750, -0.12500, -0.25000, 0.00000, 0.00000, -0.12500, -0.25000, -0.12500, 0.06250, 0.25000, 0.00000, 0.06250, 0.18750, 0.06250, 0.43750, -0.25000, 0.31250, -0.25000, 0.06250, -0.43750, -0.25000, 0.00000, 0.18750, 0.06250, -0.37500, 0.43750, -0.31250, -0.43750, 0.12500, -0.06250, 0.12500, 0.12500, -0.12500, -0.06250, 0.00000, 0.12500, -0.12500, 0.00000, -0.18750, -0.62500, -0.25000, 0.12500, -0.06250, -0.06250, -0.25000, 0.00000, 0.06250, 0.18750, -0.18750, -0.37500, -0.06250, -0.12500, -0.06250, -0.37500, -0.18750, -0.12500, 0.31250, -0.43750, 0.25000, -0.43750, -0.12500, -0.06250, -0.93750, -0.06250, 0.00000, -0.12500, -0.06250, -0.06250, -0.06250, -0.18750, -0.06250, -0.18750, -0.25000, 0.12500, 0.00000, -0.18750, 0.00000, 0.18750, -0.43750, -0.12500, -0.18750, 0.06250, -0.12500, -0.06250, -0.12500, 0.00000, -0.06250, -0.06250, -0.12500, -0.06250, -0.12500, -0.43750, -0.12500, -0.25000, -0.56250, 0.18750, -0.18750, -0.37500, 0.06250, -0.25000, -0.31250, 0.18750, -0.50000, 0.31250, 0.00000, 0.06250, -0.25000, 0.43750, 0.18750, -0.50000, -0.12500, -0.12500, -0.06250, -0.06250, 0.18750, 0.00000, 0.93750, -0.12500, 0.25000, 0.12500, 0.06250, -0.18750, 0.12500, 0.06250, 0.00000, 0.06250, -0.18750, -0.18750, 0.25000, 0.06250, 0.12500, 0.25000, 0.00000, 0.37500, -0.18750, -0.06250, 0.00000, 0.25000, -0.18750, -0.25000, 0.06250, 0.00000, -0.18750, 0.12500, -0.06250, -0.25000, 0.43750, 0.18750, 0.12500, -0.06250, 0.25000, 0.31250, 0.12500, -0.12500, 0.06250, 0.12500, 0.00000, 0.00000, 0.00000, 0.18750, 0.18750, 0.00000, 0.18750, -0.06250, -0.12500, 0.06250, 0.12500, 0.12500, 0.12500, -0.31250, 0.00000, -0.18750, -0.37500, -0.25000, -0.06250, 0.06250, 0.25000, -0.18750, -0.25000, -0.43750, -0.18750, -0.31250, 0.00000, -0.12500, 0.12500, 0.37500, 0.31250, -0.18750, -0.31250, -0.18750, 0.12500, 0.06250, 0.00000, -0.06250, -0.12500, -0.06250, -0.50000, 0.00000, 0.00000, -0.06250, 0.31250, -0.12500, 0.06250, -0.37500, -0.25000, 0.06250, 0.37500, 0.43750, -0.12500, -0.37500, 0.06250, -0.06250, 0.06250, -0.18750, -0.06250, -0.31250, 0.25000, -0.43750, 0.00000, -0.12500, 0.00000, 0.56250, 0.18750, -0.06250, 0.12500, -0.12500, -0.06250, -0.12500, 0.18750, -0.12500, -0.18750, -0.12500, 0.25000, 0.25000, 0.06250, 0.18750, 0.12500, 0.75000, 0.06250, 0.12500, -0.50000, -0.06250, 0.12500, -0.31250, -0.31250, 0.06250, 0.00000, -0.12500, 0.00000, 0.25000, 0.00000, -0.18750, 0.06250, 0.18750, -0.81250, -0.75000, 0.00000, -0.06250, 0.12500, 0.00000, -0.06250, -0.12500, -0.18750, 0.00000, 0.18750, -0.31250, 0.12500, 0.18750, -0.06250, 0.12500, 0.00000, 0.06250, 0.06250, 0.31250, 0.00000, 0.18750, 0.12500, 0.00000, -0.31250, -0.31250, 0.18750, 0.12500, 0.00000, -0.06250, 0.12500, 0.06250, -0.31250, 0.00000, 0.12500, 0.12500, 0.31250, -0.31250, 0.25000, 0.00000, 0.06250, -0.50000, -0.06250, 0.00000, 0.00000, 0.00000, 0.00000, -0.25000, 0.18750, 0.06250, 0.12500, -0.12500, -0.31250, -0.18750, -0.25000, -0.18750, -0.37500, -0.18750, -0.06250, -0.25000, -0.06250, -0.12500, -0.25000, 0.31250, -1.00000, -0.43750, 0.00000, -0.37500, -0.12500, -0.25000, -0.18750, -0.12500, 0.18750, -0.18750, -0.12500, 0.00000, 0.12500, -0.06250, -0.18750, 0.12500, 0.06250, 0.00000, 0.06250, 0.12500, -0.25000, 0.12500, -0.12500, 0.00000, 0.25000, 0.18750, 0.12500, -0.12500, -0.12500, 0.06250, 0.00000, 0.06250, -0.43750, -0.06250, -0.06250, -0.25000, -0.06250, -0.18750, 0.37500, 0.06250, -0.06250, -0.12500, -0.18750, -0.18750, 0.06250, -0.12500, 0.12500, 0.18750, 0.18750, 0.06250, 0.12500, -0.31250, -0.43750, -0.31250, -0.12500, 0.25000, -0.31250, 0.00000, -0.50000, 0.06250, -0.43750, 0.12500, 0.00000, -0.12500, -0.75000, -0.37500, 0.00000, 0.06250, 0.00000, -0.06250, 0.37500, -0.18750, -0.06250, 0.06250, 0.06250, 0.06250, 0.56250, 0.00000, 0.06250, 0.25000, -0.12500, 0.06250, 0.31250, 0.00000, 0.12500, -0.06250, -0.06250, -0.18750, 0.18750, -0.06250, 0.12500, -0.37500, 0.25000, 0.00000, 0.12500, 0.06250, -0.25000, 0.06250, 0.12500, -0.06250, 0.06250, -0.12500, 0.12500, 0.00000, -0.06250, 0.43750, 0.00000, 0.00000, 0.56250, 0.06250, -0.31250, -0.25000, 0.06250, -0.12500, 0.00000, -0.12500, 0.18750, -0.43750, -0.31250, -0.37500, -0.12500, 0.06250, -0.68750, 0.31250, -0.37500, -0.12500, -0.31250, 0.18750, -0.75000, -0.25000, 0.43750, -0.31250, -0.12500, -0.18750, -0.06250, 0.18750, 0.06250, 0.06250, -0.06250, -0.06250, 0.25000, -0.31250, -0.43750, 0.18750, -0.06250, -0.12500, 0.00000, 0.12500, -0.06250, -0.25000, -0.12500, -0.12500, 0.00000, -0.37500, 0.00000, -0.06250, 0.00000, 0.12500, 0.00000, -0.25000, 0.00000, -0.31250, 0.06250, -0.18750, -0.12500, -0.06250, -0.12500, -0.06250, -0.56250, -0.06250, 0.06250, 0.31250, -0.12500, 0.00000, 0.06250, -0.06250, 0.18750, -0.06250, -0.12500, -0.25000, 0.75000, 0.50000, -0.18750, -0.18750, 0.00000, 0.18750, 0.12500, -0.37500, 0.31250, 0.31250, 0.00000, -0.06250, -0.25000, -0.06250, 0.12500, 0.18750, 0.18750, -0.12500, 0.12500, -0.06250, 0.25000, 0.68750, 0.12500, -0.18750, -0.12500, 0.87500, 0.00000, -0.12500, 0.12500, -0.12500, -0.12500, -0.06250, 0.00000, 0.25000, -0.06250, 0.18750, -0.06250, -0.25000, 0.00000, -0.18750, 0.00000, -0.06250, 0.18750, -0.12500, -0.12500};
//#endif

#endif
