//Numpy array shape [128, 64]
//Min -1.000000000000
//Max 0.812500000000
//Number of zeros 1063

#ifndef W2_H_
#define W2_H_

//#ifndef __SYNTHESIS__
//static weight2_t w2[8192];
//#else
static weight2_t w2[8192] = {-0.12500, 0.12500, 0.25000, 0.06250, 0.18750, 0.25000, 0.06250, 0.25000, 0.37500, 0.06250, 0.06250, 0.06250, 0.25000, 0.12500, 0.06250, 0.00000, 0.00000, 0.06250, 0.12500, 0.25000, 0.06250, 0.06250, 0.06250, 0.06250, -0.06250, -0.37500, -0.31250, -0.12500, -0.43750, -0.43750, -0.31250, -0.43750, -0.12500, 0.12500, 0.25000, 0.00000, 0.18750, 0.18750, 0.06250, 0.18750, 0.37500, 0.00000, 0.06250, 0.12500, 0.18750, 0.00000, 0.00000, 0.00000, 0.06250, 0.06250, 0.12500, 0.18750, 0.00000, 0.12500, 0.06250, 0.00000, -0.12500, -0.31250, -0.12500, -0.25000, -0.37500, -0.37500, -0.37500, -0.25000, 0.00000, 0.12500, 0.18750, -0.06250, 0.12500, 0.18750, -0.06250, 0.12500, 0.37500, -0.06250, 0.06250, 0.00000, 0.18750, -0.06250, -0.06250, -0.12500, -0.18750, 0.00000, 0.12500, 0.12500, -0.06250, 0.00000, -0.12500, -0.18750, -0.18750, -0.50000, -0.25000, -0.31250, -0.43750, -0.31250, -0.50000, -0.37500, -0.06250, 0.06250, 0.18750, 0.00000, 0.12500, 0.06250, 0.00000, 0.06250, 0.18750, -0.06250, -0.06250, -0.06250, 0.06250, -0.18750, -0.06250, -0.18750, -0.18750, 0.00000, -0.06250, 0.06250, -0.12500, -0.06250, -0.12500, -0.25000, -0.25000, -0.50000, -0.25000, -0.31250, -0.50000, -0.31250, -0.37500, -0.31250, 0.00000, 0.18750, 0.12500, 0.06250, 0.06250, 0.18750, 0.12500, 0.18750, 0.37500, 0.25000, 0.12500, 0.18750, 0.18750, 0.18750, 0.12500, 0.18750, -0.06250, 0.06250, -0.25000, -0.18750, 0.06250, 0.00000, -0.06250, -0.12500, -0.12500, -0.06250, -0.12500, -0.31250, -0.37500, -0.62500, -0.31250, -0.25000, 0.00000, 0.18750, 0.06250, -0.06250, 0.06250, 0.06250, 0.12500, 0.00000, 0.37500, 0.18750, 0.12500, 0.12500, 0.12500, 0.12500, 0.12500, 0.25000, -0.12500, -0.06250, -0.18750, -0.18750, 0.06250, -0.12500, -0.06250, -0.18750, -0.12500, 0.00000, -0.18750, -0.25000, -0.37500, -0.62500, -0.25000, -0.37500, 0.00000, 0.12500, 0.00000, 0.00000, -0.06250, 0.06250, 0.06250, 0.06250, 0.25000, 0.06250, 0.06250, 0.06250, 0.06250, 0.06250, 0.06250, 0.12500, -0.18750, -0.12500, -0.31250, -0.31250, -0.12500, -0.18750, -0.06250, -0.18750, -0.12500, -0.06250, -0.06250, -0.37500, -0.31250, -0.56250, -0.06250, -0.12500, -0.12500, 0.18750, -0.06250, -0.06250, 0.00000, 0.00000, 0.06250, -0.06250, 0.25000, 0.06250, 0.00000, 0.00000, 0.00000, 0.00000, -0.12500, 0.06250, -0.25000, -0.12500, -0.25000, -0.31250, -0.12500, -0.18750, -0.12500, -0.18750, -0.25000, -0.06250, 0.00000, -0.37500, -0.31250, -0.62500, -0.18750, -0.25000, 0.00000, 0.37500, -0.06250, -0.06250, 0.00000, 0.25000, 0.12500, 0.06250, -0.06250, 0.18750, 0.06250, 0.00000, 0.06250, -0.25000, -0.12500, -0.12500, 0.00000, -0.06250, -0.06250, 0.00000, 0.06250, 0.12500, 0.12500, 0.18750, 0.31250, 0.31250, 0.18750, 0.25000, 0.25000, 0.00000, 0.00000, 0.06250, 0.06250, 0.50000, 0.00000, -0.06250, 0.00000, 0.18750, 0.18750, 0.06250, -0.06250, 0.18750, 0.06250, -0.06250, 0.06250, -0.18750, -0.12500, -0.12500, -0.06250, -0.06250, -0.06250, -0.06250, 0.06250, 0.12500, 0.12500, 0.25000, 0.25000, 0.25000, 0.31250, 0.31250, 0.12500, 0.06250, 0.06250, 0.00000, 0.06250, 0.56250, 0.06250, 0.00000, 0.00000, 0.25000, 0.12500, 0.18750, 0.00000, 0.12500, 0.06250, -0.06250, 0.06250, -0.18750, -0.06250, -0.12500, 0.00000, -0.06250, -0.06250, -0.06250, 0.06250, 0.12500, 0.12500, 0.12500, 0.25000, 0.25000, 0.18750, 0.18750, 0.06250, 0.00000, 0.06250, 0.00000, 0.06250, 0.50000, 0.12500, 0.00000, 0.06250, 0.25000, 0.12500, 0.18750, 0.00000, 0.18750, 0.12500, -0.06250, 0.00000, -0.12500, -0.12500, -0.12500, -0.06250, -0.06250, -0.06250, -0.06250, 0.00000, 0.12500, 0.18750, 0.12500, 0.25000, 0.18750, 0.18750, 0.12500, 0.18750, 0.06250, -0.06250, 0.00000, 0.06250, 0.06250, -0.18750, -0.25000, -0.31250, -0.06250, -0.06250, -0.12500, -0.12500, 0.12500, 0.00000, 0.06250, 0.00000, 0.06250, 0.06250, 0.18750, 0.18750, 0.31250, 0.18750, 0.12500, 0.31250, 0.31250, 0.18750, 0.12500, 0.12500, 0.18750, 0.06250, 0.06250, -0.12500, -0.06250, -0.06250, -0.06250, 0.18750, 0.12500, -0.18750, -0.25000, -0.31250, -0.06250, -0.12500, -0.12500, -0.12500, 0.06250, 0.00000, 0.06250, 0.12500, 0.12500, 0.18750, 0.12500, 0.18750, 0.25000, 0.31250, 0.25000, 0.37500, 0.18750, 0.18750, 0.18750, 0.12500, 0.31250, 0.00000, 0.18750, 0.06250, -0.18750, -0.18750, 0.00000, 0.12500, 0.06250, -0.12500, -0.25000, -0.25000, -0.06250, -0.06250, -0.06250, -0.12500, 0.00000, 0.06250, 0.06250, 0.06250, 0.12500, 0.06250, 0.18750, 0.25000, 0.25000, 0.25000, 0.31250, 0.31250, 0.31250, 0.18750, 0.12500, 0.06250, 0.18750, 0.06250, 0.06250, -0.06250, -0.18750, -0.06250, -0.06250, 0.12500, 0.12500, -0.12500, -0.25000, -0.25000, -0.06250, -0.12500, 0.00000, -0.06250, 0.06250, 0.06250, 0.12500, 0.06250, 0.18750, 0.12500, 0.18750, 0.25000, 0.25000, 0.18750, 0.25000, 0.31250, 0.31250, 0.18750, 0.12500, 0.06250, 0.18750, 0.18750, 0.00000, 0.00000, -0.12500, -0.25000, -0.25000, -0.25000, 0.06250, 0.18750, 0.00000, -0.06250, 0.12500, -0.18750, -0.12500, 0.06250, 0.06250, -0.12500, 0.31250, 0.06250, 0.00000, 0.25000, 0.31250, 0.37500, 0.18750, 0.12500, -0.06250, 0.31250, 0.00000, 0.18750, -0.06250, 0.25000, 0.12500, -0.06250, -0.06250, -0.06250, -0.12500, 0.12500, 0.06250, -0.25000, 0.12500, 0.18750, 0.00000, -0.06250, 0.06250, -0.25000, 0.00000, 0.06250, 0.00000, -0.12500, 0.31250, 0.00000, -0.06250, 0.31250, 0.25000, 0.31250, 0.12500, 0.00000, -0.18750, 0.25000, 0.06250, 0.06250, -0.12500, 0.12500, 0.12500, 0.00000, -0.12500, -0.06250, -0.31250, -0.25000, 0.12500, -0.31250, 0.06250, 0.18750, 0.00000, -0.06250, 0.06250, -0.18750, -0.12500, 0.06250, -0.06250, -0.12500, 0.25000, -0.06250, -0.18750, 0.31250, 0.18750, 0.31250, 0.06250, 0.00000, -0.12500, 0.18750, 0.00000, 0.00000, -0.18750, 0.12500, 0.06250, 0.00000, -0.06250, -0.06250, -0.25000, -0.06250, 0.00000, -0.37500, 0.00000, 0.18750, 0.06250, -0.12500, 0.00000, -0.12500, 0.00000, 0.06250, -0.12500, -0.12500, 0.25000, 0.00000, -0.18750, 0.18750, 0.12500, 0.37500, 0.18750, 0.06250, -0.12500, 0.25000, 0.00000, 0.00000, -0.18750, 0.18750, 0.12500, 0.06250, -0.06250, -0.12500, -0.25000, -0.06250, 0.06250, 0.62500, 0.12500, 0.06250, 0.18750, 0.12500, -0.43750, 0.06250, -0.12500, -0.31250, -0.25000, -0.25000, -0.06250, 0.00000, 0.00000, 0.06250, 0.00000, -0.25000, -0.31250, -0.06250, -0.25000, -0.06250, -0.18750, 0.00000, 0.25000, -0.18750, 0.18750, 0.00000, -0.25000, -0.18750, 0.12500, 0.00000, 0.25000, 0.62500, 0.12500, 0.12500, 0.25000, 0.12500, -0.37500, 0.18750, -0.12500, -0.31250, -0.25000, -0.25000, -0.06250, 0.00000, 0.00000, 0.12500, 0.06250, -0.18750, -0.25000, -0.06250, -0.18750, 0.00000, -0.06250, 0.06250, 0.18750, -0.18750, 0.25000, 0.06250, -0.25000, -0.06250, 0.25000, 0.12500, 0.31250, 0.62500, 0.12500, 0.12500, 0.25000, 0.12500, -0.31250, 0.25000, 0.00000, -0.25000, -0.25000, -0.25000, 0.00000, 0.06250, 0.00000, 0.18750, 0.00000, -0.12500, -0.25000, 0.00000, -0.12500, 0.06250, 0.00000, 0.18750, 0.25000, -0.12500, 0.25000, 0.12500, -0.12500, -0.06250, 0.18750, 0.18750, 0.37500, 0.56250, 0.12500, 0.18750, 0.31250, 0.18750, -0.25000, 0.18750, -0.06250, -0.25000, -0.25000, -0.18750, 0.06250, 0.12500, 0.06250, 0.18750, 0.00000, -0.12500, -0.18750, 0.00000, -0.12500, 0.12500, -0.06250, 0.12500, 0.31250, -0.12500, 0.31250, 0.12500, -0.18750, -0.06250, 0.25000, 0.06250, 0.25000, 0.12500, 0.12500, -0.43750, -0.31250, -0.18750, 0.12500, -0.06250, 0.18750, 0.06250, 0.12500, 0.06250, -0.06250, -0.06250, -0.12500, -0.18750, -0.25000, -0.18750, -0.18750, -0.31250, -0.06250, -0.12500, 0.00000, -0.25000, -0.25000, -0.06250, -0.31250, -0.12500, -0.06250, -0.12500, 0.00000, -0.25000, -0.25000, 0.18750, 0.18750, -0.50000, -0.31250, -0.25000, 0.12500, 0.00000, 0.31250, 0.06250, 0.18750, 0.06250, -0.06250, -0.06250, -0.06250, -0.12500, -0.31250, -0.18750, -0.18750, -0.31250, -0.12500, -0.06250, 0.06250, -0.25000, -0.18750, -0.06250, -0.31250, -0.12500, 0.00000, -0.12500, -0.06250, -0.12500, -0.25000, 0.12500, 0.18750, -0.50000, -0.31250, -0.25000, 0.18750, 0.06250, 0.31250, 0.12500, 0.18750, 0.00000, 0.00000, -0.06250, -0.06250, -0.12500, -0.25000, -0.12500, -0.12500, -0.25000, -0.06250, 0.06250, 0.00000, -0.12500, -0.18750, 0.00000, -0.25000, -0.12500, 0.06250, -0.06250, -0.18750, -0.06250, -0.18750, 0.12500, 0.18750, -0.37500, -0.25000, -0.18750, 0.18750, 0.06250, 0.37500, 0.12500, 0.18750, 0.06250, -0.06250, 0.00000, -0.06250, -0.06250, -0.18750, -0.06250, -0.18750, -0.18750, -0.06250, 0.00000, 0.06250, -0.06250, -0.18750, -0.06250, -0.18750, -0.12500, 0.00000, -0.12500, -0.06250, -0.06250, -0.31250, 0.06250, -0.25000, -0.06250, 0.00000, -0.06250, 0.00000, 0.00000, -0.25000, -0.25000, 0.12500, 0.06250, -0.18750, 0.00000, 0.12500, -0.06250, 0.25000, 0.18750, 0.18750, 0.12500, -0.12500, 0.06250, 0.12500, 0.06250, 0.00000, 0.12500, 0.18750, 0.12500, 0.25000, 0.06250, 0.00000, 0.06250, -0.12500, 0.06250, -0.31250, 0.00000, -0.06250, -0.06250, -0.06250, -0.12500, -0.37500, -0.31250, 0.12500, 0.06250, -0.18750, -0.06250, 0.00000, -0.06250, 0.06250, 0.06250, 0.12500, 0.06250, -0.18750, 0.00000, 0.18750, 0.00000, -0.06250, 0.06250, 0.06250, 0.06250, 0.25000, 0.12500, -0.18750, -0.06250, -0.06250, 0.06250, -0.37500, -0.12500, -0.06250, -0.18750, -0.12500, -0.12500, -0.37500, -0.37500, -0.06250, 0.00000, -0.25000, -0.18750, -0.06250, -0.25000, 0.00000, 0.00000, 0.00000, -0.12500, -0.18750, -0.18750, 0.12500, -0.18750, -0.18750, 0.00000, -0.06250, 0.06250, 0.06250, 0.00000, -0.12500, -0.25000, -0.06250, 0.12500, -0.43750, -0.12500, -0.12500, -0.18750, -0.18750, -0.18750, -0.50000, -0.37500, -0.06250, -0.06250, -0.37500, -0.18750, -0.12500, -0.31250, -0.12500, 0.00000, -0.12500, -0.18750, -0.43750, -0.25000, 0.00000, -0.12500, -0.12500, -0.12500, -0.12500, -0.18750, 0.12500, 0.00000, -0.12500, -0.06250, -0.25000, -0.18750, 0.56250, 0.25000, -0.12500, -0.12500, -0.12500, -0.18750, -0.12500, -0.37500, -0.25000, -0.18750, -0.31250, -0.25000, -0.37500, -0.25000, -0.25000, -0.25000, -0.25000, -0.25000, -0.31250, -0.25000, -0.31250, -0.18750, -0.37500, -0.25000, -0.25000, -0.25000, -0.18750, -0.12500, -0.12500, 0.06250, 0.00000, -0.18750, 0.75000, 0.37500, -0.06250, -0.06250, -0.06250, -0.12500, -0.06250, -0.37500, -0.18750, -0.25000, -0.25000, -0.18750, -0.25000, -0.18750, -0.12500, -0.12500, -0.18750, -0.18750, -0.31250, -0.18750, -0.31250, -0.25000, -0.43750, -0.31250, -0.31250, -0.18750, -0.25000, -0.06250, -0.06250, 0.00000, 0.12500, -0.12500, 0.75000, 0.50000, -0.06250, 0.00000, 0.00000, 0.00000, 0.00000, -0.25000, -0.06250, -0.12500, -0.06250, -0.12500, -0.18750, -0.06250, -0.12500, -0.06250, -0.12500, -0.12500, -0.18750, -0.18750, -0.18750, -0.12500, -0.25000, -0.25000, -0.12500, -0.06250, -0.12500, -0.06250, -0.06250, 0.00000, 0.00000, -0.12500, 0.68750, 0.56250, 0.00000, 0.06250, 0.06250, 0.00000, 0.12500, -0.18750, 0.00000, -0.06250, 0.00000, -0.06250, -0.12500, 0.00000, -0.06250, 0.00000, -0.06250, 0.00000, -0.12500, -0.06250, -0.12500, -0.06250, -0.25000, -0.06250, -0.06250, -0.12500, -0.06250, 0.00000, -0.12500, 0.00000, 0.06250, -0.25000, -0.12500, 0.43750, 0.18750, 0.31250, -0.12500, -0.18750, -0.31250, 0.18750, -0.12500, -0.06250, 0.18750, 0.00000, 0.31250, 0.18750, 0.18750, 0.06250, 0.06250, 0.18750, 0.18750, 0.06250, 0.12500, 0.18750, 0.18750, 0.00000, 0.06250, 0.12500, 0.00000, -0.06250, 0.12500, -0.06250, -0.06250, -0.25000, -0.18750, 0.43750, 0.18750, 0.31250, -0.18750, -0.25000, -0.37500, 0.18750, -0.18750, -0.06250, 0.18750, 0.00000, 0.25000, 0.18750, 0.25000, 0.12500, 0.12500, 0.12500, 0.12500, 0.00000, 0.00000, 0.12500, 0.18750, 0.00000, 0.12500, 0.12500, 0.00000, -0.06250, 0.12500, -0.12500, -0.06250, -0.25000, -0.18750, 0.37500, 0.18750, 0.31250, -0.12500, -0.25000, -0.43750, 0.12500, -0.18750, -0.06250, 0.12500, 0.00000, 0.18750, 0.18750, 0.25000, 0.06250, 0.06250, 0.12500, 0.18750, 0.00000, 0.00000, 0.12500, 0.18750, -0.06250, 0.06250, 0.12500, 0.00000, -0.06250, 0.12500, -0.06250, -0.06250, -0.25000, -0.18750, 0.31250, 0.12500, 0.25000, -0.18750, -0.18750, -0.37500, 0.12500, -0.18750, -0.12500, 0.18750, -0.06250, 0.18750, 0.12500, 0.25000, 0.06250, 0.06250, 0.12500, 0.12500, 0.06250, 0.00000, 0.06250, 0.25000, 0.00000, 0.06250, 0.06250, 0.00000, -0.12500, 0.12500, 0.00000, -0.06250, -0.31250, 0.18750, 0.00000, -0.06250, 0.12500, -0.06250, -0.12500, -0.18750, -0.18750, -0.12500, -0.12500, 0.06250, 0.18750, 0.31250, 0.00000, 0.43750, 0.12500, 0.12500, -0.06250, -0.06250, 0.06250, -0.12500, 0.18750, 0.18750, 0.37500, 0.43750, 0.12500, -0.06250, 0.18750, 0.00000, 0.12500, -0.12500, -0.31250, 0.18750, 0.00000, -0.06250, 0.12500, 0.00000, -0.12500, -0.18750, -0.18750, -0.12500, -0.12500, 0.12500, 0.18750, 0.25000, 0.00000, 0.37500, 0.06250, 0.12500, -0.12500, -0.12500, -0.06250, -0.12500, 0.12500, 0.00000, 0.31250, 0.31250, 0.06250, -0.06250, 0.12500, 0.00000, 0.00000, -0.18750, -0.31250, 0.18750, 0.06250, -0.06250, 0.12500, 0.00000, -0.12500, -0.18750, -0.25000, -0.12500, -0.12500, 0.00000, 0.18750, 0.25000, 0.00000, 0.37500, 0.00000, 0.06250, -0.25000, -0.18750, -0.06250, -0.25000, 0.00000, -0.06250, 0.18750, 0.25000, -0.06250, -0.06250, 0.00000, -0.06250, 0.00000, -0.25000, -0.25000, 0.18750, 0.00000, -0.12500, 0.06250, 0.00000, -0.12500, -0.25000, -0.18750, -0.12500, -0.12500, 0.00000, 0.18750, 0.25000, -0.06250, 0.37500, 0.00000, 0.06250, -0.25000, -0.12500, -0.06250, -0.25000, -0.06250, 0.00000, 0.25000, 0.25000, -0.06250, -0.12500, 0.00000, 0.00000, 0.00000, -0.31250, -0.62500, 0.00000, -0.25000, -0.37500, -0.18750, 0.06250, -0.18750, -0.06250, -0.12500, 0.12500, 0.06250, 0.00000, -0.06250, 0.00000, 0.06250, 0.00000, 0.18750, 0.18750, 0.18750, 0.18750, 0.06250, 0.25000, 0.18750, 0.00000, 0.00000, -0.06250, 0.06250, 0.06250, -0.25000, -0.18750, -0.31250, -0.25000, -0.62500, 0.06250, -0.18750, -0.37500, -0.18750, 0.00000, -0.12500, -0.06250, -0.12500, 0.12500, 0.06250, 0.00000, -0.06250, 0.00000, 0.06250, 0.12500, 0.12500, 0.25000, 0.18750, 0.12500, 0.12500, 0.25000, 0.25000, 0.12500, 0.00000, -0.12500, 0.06250, 0.06250, -0.25000, -0.25000, -0.37500, -0.25000, -0.56250, 0.12500, -0.12500, -0.25000, -0.18750, 0.06250, -0.12500, 0.00000, -0.12500, 0.12500, 0.06250, 0.06250, -0.06250, 0.06250, 0.06250, 0.06250, 0.12500, 0.18750, 0.12500, 0.18750, 0.12500, 0.31250, 0.31250, 0.12500, 0.00000, -0.06250, 0.12500, 0.06250, -0.25000, -0.18750, -0.31250, -0.25000, -0.56250, 0.06250, -0.06250, -0.31250, -0.12500, 0.06250, -0.12500, 0.00000, -0.12500, 0.18750, 0.06250, 0.06250, 0.00000, 0.00000, 0.12500, 0.00000, 0.18750, 0.18750, 0.18750, 0.18750, 0.06250, 0.31250, 0.31250, 0.12500, 0.06250, -0.12500, 0.12500, 0.12500, -0.25000, -0.18750, -0.31250, -0.18750, 0.25000, 0.18750, 0.12500, 0.31250, 0.12500, -0.06250, 0.18750, 0.43750, -0.31250, -0.25000, -0.06250, 0.12500, 0.12500, 0.06250, 0.18750, 0.12500, 0.06250, 0.00000, 0.25000, 0.25000, -0.06250, -0.12500, 0.00000, 0.00000, -0.12500, 0.00000, 0.00000, 0.00000, 0.06250, 0.25000, 0.12500, 0.18750, 0.25000, 0.18750, 0.12500, 0.31250, 0.18750, -0.18750, 0.18750, 0.37500, -0.31250, -0.25000, -0.12500, 0.06250, 0.06250, 0.06250, 0.12500, 0.06250, 0.06250, 0.00000, 0.18750, 0.18750, -0.12500, -0.25000, -0.06250, -0.06250, -0.18750, -0.06250, 0.00000, 0.00000, 0.00000, 0.25000, 0.18750, 0.12500, 0.25000, 0.12500, 0.06250, 0.25000, 0.12500, -0.25000, 0.06250, 0.37500, -0.37500, -0.31250, -0.12500, -0.06250, 0.00000, 0.00000, 0.00000, 0.00000, -0.06250, -0.12500, 0.18750, 0.06250, -0.25000, -0.31250, -0.18750, -0.18750, -0.25000, -0.06250, -0.06250, -0.18750, -0.06250, 0.18750, 0.12500, 0.06250, 0.25000, 0.12500, 0.06250, 0.18750, 0.06250, -0.25000, 0.06250, 0.25000, -0.43750, -0.37500, -0.18750, -0.06250, -0.06250, -0.06250, -0.06250, 0.00000, -0.12500, -0.12500, 0.12500, 0.06250, -0.18750, -0.31250, -0.18750, -0.18750, -0.31250, -0.12500, -0.18750, -0.12500, -0.12500, 0.18750, 0.06250, 0.06250, 0.00000, -0.56250, -0.25000, -0.12500, -0.12500, -0.25000, -0.18750, -0.31250, -0.06250, -0.25000, -0.12500, 0.00000, -0.06250, 0.12500, 0.00000, 0.00000, 0.06250, 0.00000, 0.06250, 0.12500, 0.06250, 0.12500, 0.06250, 0.25000, -0.06250, -0.12500, -0.18750, -0.25000, -0.25000, -0.18750, -0.31250, -0.37500, 0.00000, -0.62500, -0.31250, -0.18750, -0.12500, -0.25000, -0.18750, -0.31250, -0.06250, -0.25000, -0.12500, 0.00000, -0.06250, 0.12500, 0.06250, 0.06250, 0.06250, 0.06250, 0.06250, 0.12500, 0.06250, 0.06250, 0.00000, 0.18750, -0.06250, -0.12500, -0.18750, -0.25000, -0.25000, -0.18750, -0.37500, -0.43750, 0.06250, -0.62500, -0.31250, -0.18750, -0.12500, -0.25000, -0.18750, -0.31250, -0.06250, -0.18750, -0.12500, 0.00000, 0.00000, 0.06250, 0.06250, 0.06250, 0.06250, 0.06250, 0.12500, 0.06250, 0.06250, 0.12500, 0.06250, 0.25000, 0.00000, -0.12500, -0.25000, -0.25000, -0.31250, -0.18750, -0.31250, -0.43750, 0.00000, -0.56250, -0.37500, -0.18750, -0.12500, -0.25000, -0.18750, -0.25000, -0.12500, -0.25000, -0.12500, 0.00000, 0.00000, 0.12500, 0.00000, 0.06250, 0.06250, 0.06250, 0.12500, 0.12500, 0.00000, 0.18750, 0.06250, 0.18750, -0.06250, -0.12500, -0.18750, -0.25000, -0.25000, -0.12500, -0.37500, -0.37500, -0.06250, -0.18750, 0.37500, 0.06250, 0.31250, 0.31250, 0.12500, -0.18750, -0.12500, 0.12500, 0.06250, 0.18750, 0.31250, 0.00000, 0.31250, 0.37500, 0.18750, 0.06250, 0.18750, -0.12500, -0.06250, -0.12500, 0.06250, -0.25000, 0.00000, -0.12500, -0.18750, -0.12500, -0.06250, -0.18750, 0.06250, 0.00000, -0.06250, -0.37500, 0.31250, 0.06250, 0.31250, 0.31250, 0.12500, -0.25000, -0.12500, 0.12500, 0.06250, 0.12500, 0.31250, 0.00000, 0.31250, 0.31250, 0.25000, 0.06250, 0.25000, -0.06250, 0.00000, -0.12500, 0.06250, -0.31250, 0.00000, -0.06250, -0.25000, -0.06250, 0.00000, -0.18750, 0.00000, 0.00000, -0.12500, -0.37500, 0.31250, 0.00000, 0.31250, 0.31250, 0.06250, -0.31250, -0.12500, 0.06250, 0.06250, 0.12500, 0.31250, 0.06250, 0.31250, 0.37500, 0.25000, 0.06250, 0.18750, -0.12500, -0.06250, -0.18750, 0.06250, -0.31250, 0.00000, 0.00000, -0.31250, -0.12500, 0.00000, -0.25000, 0.06250, 0.00000, -0.12500, -0.37500, 0.18750, -0.06250, 0.25000, 0.25000, 0.00000, -0.25000, -0.12500, 0.06250, 0.00000, 0.06250, 0.25000, 0.00000, 0.18750, 0.25000, 0.18750, 0.06250, 0.18750, -0.18750, -0.06250, -0.12500, 0.00000, -0.31250, 0.00000, -0.12500, -0.25000, -0.25000, -0.06250, -0.18750, -0.06250, -0.06250, 0.31250, 0.06250, 0.12500, 0.06250, -0.18750, -0.56250, 0.18750, 0.00000, 0.12500, 0.00000, -0.06250, 0.31250, 0.18750, 0.31250, 0.12500, 0.18750, 0.18750, 0.12500, -0.12500, -0.06250, 0.00000, -0.06250, -0.25000, -0.18750, 0.12500, -0.31250, -0.37500, -0.37500, 0.18750, -0.12500, 0.12500, -0.31250, 0.31250, 0.06250, 0.12500, 0.06250, -0.18750, -0.62500, 0.18750, -0.06250, 0.12500, 0.00000, 0.00000, 0.31250, 0.12500, 0.31250, 0.12500, 0.18750, 0.18750, 0.06250, -0.18750, -0.06250, 0.00000, -0.06250, -0.25000, -0.12500, 0.12500, -0.25000, -0.31250, -0.31250, 0.12500, -0.12500, 0.12500, -0.31250, 0.31250, 0.06250, 0.06250, 0.06250, -0.18750, -0.68750, 0.12500, 0.00000, 0.12500, -0.06250, -0.06250, 0.31250, 0.12500, 0.31250, 0.12500, 0.18750, 0.18750, 0.06250, -0.12500, -0.06250, 0.00000, -0.06250, -0.31250, -0.12500, 0.12500, -0.31250, -0.37500, -0.31250, 0.18750, -0.06250, 0.18750, -0.25000, 0.31250, 0.06250, 0.06250, 0.06250, -0.18750, -0.62500, 0.18750, -0.06250, 0.12500, -0.06250, -0.06250, 0.31250, 0.18750, 0.25000, 0.12500, 0.12500, 0.18750, 0.06250, -0.12500, -0.12500, 0.00000, -0.06250, -0.31250, -0.12500, 0.06250, -0.25000, -0.31250, -0.25000, 0.12500, -0.12500, 0.18750, -0.25000, 0.25000, 0.00000, 0.06250, 0.25000, -0.06250, -0.56250, 0.12500, 0.62500, -0.31250, -0.12500, 0.00000, 0.00000, -0.06250, 0.25000, 0.00000, 0.12500, 0.06250, 0.06250, 0.00000, 0.00000, 0.06250, 0.06250, -0.18750, -0.06250, -0.12500, 0.12500, -0.12500, -0.12500, -0.06250, 0.12500, -0.06250, -0.12500, 0.18750, -0.12500, 0.06250, 0.31250, -0.06250, -0.62500, 0.18750, 0.75000, -0.31250, -0.12500, 0.00000, 0.00000, -0.12500, 0.25000, 0.06250, 0.12500, 0.06250, 0.06250, 0.00000, 0.06250, 0.06250, 0.06250, -0.18750, -0.06250, -0.18750, 0.12500, -0.12500, -0.18750, -0.06250, 0.06250, -0.06250, -0.06250, 0.18750, -0.06250, 0.12500, 0.25000, -0.06250, -0.62500, 0.12500, 0.68750, -0.37500, -0.06250, 0.00000, -0.06250, -0.12500, 0.18750, 0.00000, 0.18750, 0.06250, 0.06250, 0.00000, 0.00000, 0.00000, 0.00000, -0.18750, -0.06250, -0.18750, 0.18750, -0.12500, -0.12500, -0.12500, 0.06250, -0.12500, -0.12500, 0.18750, -0.06250, 0.06250, 0.25000, -0.12500, -0.56250, 0.06250, 0.68750, -0.31250, -0.06250, 0.06250, -0.06250, -0.06250, 0.25000, 0.06250, 0.12500, 0.06250, 0.00000, 0.00000, 0.00000, 0.00000, 0.06250, -0.18750, -0.06250, -0.18750, 0.12500, -0.06250, -0.12500, -0.06250, 0.06250, -0.06250, -0.06250, -0.06250, -0.18750, 0.12500, 0.12500, 0.18750, 0.18750, 0.12500, 0.25000, 0.12500, 0.25000, 0.12500, 0.37500, 0.31250, 0.37500, 0.50000, 0.43750, 0.37500, 0.31250, 0.43750, 0.18750, 0.25000, 0.12500, 0.25000, 0.06250, 0.12500, 0.06250, 0.00000, 0.06250, 0.31250, 0.18750, 0.25000, 0.31250, -0.12500, -0.31250, 0.12500, 0.06250, 0.12500, 0.12500, 0.06250, 0.18750, 0.06250, 0.12500, 0.06250, 0.18750, 0.25000, 0.18750, 0.25000, 0.25000, 0.25000, 0.18750, 0.25000, 0.12500, 0.06250, 0.00000, 0.06250, -0.06250, 0.00000, 0.06250, 0.00000, 0.06250, 0.12500, 0.06250, 0.06250, 0.18750, -0.12500, -0.43750, -0.06250, -0.06250, 0.00000, -0.06250, -0.12500, 0.00000, -0.06250, -0.06250, -0.06250, 0.00000, 0.00000, 0.00000, 0.00000, 0.00000, 0.00000, 0.00000, 0.06250, -0.06250, -0.12500, -0.12500, -0.06250, -0.18750, -0.12500, -0.18750, -0.12500, -0.06250, 0.00000, 0.00000, 0.06250, 0.06250, -0.06250, -0.37500, -0.18750, -0.12500, -0.06250, -0.18750, -0.18750, -0.12500, -0.25000, -0.18750, -0.12500, -0.12500, -0.12500, -0.18750, -0.12500, -0.18750, -0.18750, -0.12500, -0.12500, -0.25000, -0.18750, -0.25000, -0.25000, -0.31250, -0.25000, -0.25000, -0.25000, -0.06250, 0.00000, -0.06250, -0.06250, 0.00000, 0.18750, 0.25000, 0.37500, 0.18750, 0.18750, 0.31250, 0.25000, 0.31250, 0.43750, 0.37500, 0.18750, 0.18750, 0.12500, 0.06250, 0.18750, 0.06250, 0.18750, 0.18750, 0.12500, 0.06250, 0.18750, 0.25000, 0.06250, 0.00000, 0.00000, -0.12500, -0.06250, 0.06250, -0.06250, -0.12500, -0.25000, -0.31250, 0.18750, 0.31250, 0.37500, 0.12500, 0.12500, 0.31250, 0.18750, 0.37500, 0.37500, 0.43750, 0.12500, 0.18750, 0.18750, 0.06250, 0.12500, 0.00000, 0.12500, 0.12500, 0.06250, 0.00000, 0.18750, 0.12500, 0.06250, 0.06250, 0.06250, -0.18750, -0.12500, -0.06250, -0.12500, -0.25000, -0.31250, -0.31250, 0.18750, 0.25000, 0.43750, 0.18750, 0.12500, 0.25000, 0.18750, 0.31250, 0.37500, 0.43750, 0.12500, 0.06250, 0.12500, 0.00000, 0.12500, -0.06250, 0.12500, 0.06250, 0.00000, 0.00000, 0.06250, 0.06250, -0.06250, -0.06250, 0.00000, -0.18750, -0.18750, 0.00000, -0.12500, -0.25000, -0.43750, -0.37500, 0.18750, 0.25000, 0.37500, 0.12500, 0.12500, 0.31250, 0.18750, 0.25000, 0.37500, 0.37500, 0.12500, 0.12500, 0.12500, 0.00000, 0.06250, -0.06250, 0.06250, 0.00000, 0.00000, 0.00000, 0.00000, 0.06250, 0.00000, -0.12500, -0.06250, -0.25000, -0.25000, 0.00000, -0.25000, -0.43750, -0.37500, -0.56250, 0.31250, 0.25000, -0.43750, -0.43750, -0.31250, -0.25000, -0.12500, 0.00000, -0.12500, -0.18750, -0.18750, 0.12500, 0.18750, 0.25000, 0.12500, 0.18750, 0.12500, 0.12500, 0.06250, 0.18750, 0.18750, 0.06250, 0.00000, -0.06250, -0.06250, -0.25000, -0.18750, -0.31250, -0.18750, -0.12500, -0.18750, -0.37500, 0.31250, 0.31250, -0.43750, -0.43750, -0.25000, -0.18750, -0.12500, -0.06250, -0.12500, -0.18750, -0.18750, 0.12500, 0.18750, 0.25000, 0.12500, 0.18750, 0.12500, 0.12500, 0.12500, 0.25000, 0.18750, 0.06250, 0.06250, -0.06250, -0.06250, -0.31250, -0.25000, -0.31250, -0.25000, -0.12500, -0.25000, -0.31250, 0.31250, 0.31250, -0.37500, -0.43750, -0.25000, -0.18750, -0.12500, -0.06250, -0.12500, -0.18750, -0.18750, 0.12500, 0.25000, 0.31250, 0.12500, 0.18750, 0.12500, 0.12500, 0.06250, 0.18750, 0.12500, 0.06250, 0.00000, -0.06250, 0.00000, -0.25000, -0.25000, -0.31250, -0.25000, -0.12500, -0.25000, -0.37500, 0.31250, 0.25000, -0.37500, -0.37500, -0.25000, -0.18750, -0.12500, 0.00000, -0.12500, -0.18750, -0.18750, 0.12500, 0.18750, 0.25000, 0.12500, 0.18750, 0.12500, 0.12500, 0.06250, 0.18750, 0.18750, 0.00000, 0.00000, -0.06250, -0.06250, -0.31250, -0.31250, -0.31250, -0.18750, -0.18750, -0.25000, -0.25000, 0.06250, -0.62500, -0.12500, 0.31250, 0.25000, 0.12500, 0.18750, 0.62500, 0.50000, 0.06250, 0.06250, 0.06250, 0.06250, 0.00000, -0.06250, -0.31250, -0.31250, -0.31250, -0.18750, 0.00000, -0.12500, -0.25000, -0.12500, -0.06250, -0.18750, -0.06250, -0.06250, -0.12500, -0.18750, 0.00000, 0.00000, 0.00000, 0.06250, -0.75000, -0.25000, 0.31250, 0.25000, 0.12500, 0.25000, 0.62500, 0.62500, 0.06250, 0.12500, 0.06250, 0.06250, 0.00000, 0.00000, -0.31250, -0.31250, -0.25000, -0.12500, 0.00000, -0.06250, -0.25000, -0.18750, -0.06250, -0.18750, -0.12500, 0.00000, -0.12500, -0.12500, 0.06250, 0.00000, 0.00000, 0.06250, -0.75000, -0.31250, 0.31250, 0.25000, 0.12500, 0.25000, 0.68750, 0.62500, 0.12500, 0.12500, 0.18750, 0.12500, 0.06250, 0.06250, -0.18750, -0.25000, -0.25000, -0.12500, 0.06250, -0.06250, -0.18750, -0.06250, -0.06250, -0.12500, -0.06250, 0.00000, -0.06250, -0.12500, 0.06250, 0.00000, 0.06250, 0.06250, -0.56250, -0.25000, 0.25000, 0.25000, 0.12500, 0.25000, 0.68750, 0.56250, 0.12500, 0.12500, 0.18750, 0.18750, 0.12500, 0.06250, -0.12500, -0.18750, -0.18750, -0.06250, 0.06250, -0.06250, -0.12500, -0.06250, 0.00000, -0.12500, 0.00000, 0.00000, -0.06250, -0.06250, 0.06250, 0.00000, 0.00000, 0.18750, 0.18750, -0.25000, 0.00000, 0.06250, 0.18750, 0.06250, 0.06250, 0.12500, 0.25000, 0.18750, 0.06250, 0.12500, 0.18750, 0.06250, 0.12500, 0.12500, 0.12500, 0.00000, 0.12500, 0.06250, 0.12500, 0.00000, 0.06250, 0.18750, 0.12500, -0.06250, 0.00000, -0.06250, -0.06250, -0.18750, -0.25000, 0.12500, 0.25000, -0.18750, 0.00000, 0.06250, 0.18750, 0.12500, 0.12500, 0.18750, 0.31250, 0.31250, 0.06250, 0.06250, 0.25000, 0.06250, 0.12500, 0.18750, 0.12500, 0.00000, 0.06250, 0.06250, 0.25000, 0.00000, 0.12500, 0.18750, 0.06250, 0.06250, -0.12500, -0.06250, -0.06250, -0.12500, -0.25000, 0.12500, 0.31250, -0.18750, 0.00000, 0.12500, 0.18750, 0.12500, 0.00000, 0.18750, 0.37500, 0.25000, 0.12500, 0.12500, 0.31250, 0.06250, 0.18750, 0.25000, 0.18750, 0.06250, 0.18750, 0.06250, 0.25000, 0.00000, 0.25000, 0.12500, 0.00000, 0.00000, 0.06250, 0.06250, -0.06250, -0.18750, -0.25000, 0.00000, 0.25000, -0.06250, 0.06250, 0.18750, 0.25000, 0.18750, 0.12500, 0.18750, 0.37500, 0.25000, 0.06250, 0.25000, 0.31250, 0.18750, 0.25000, 0.31250, 0.31250, 0.12500, 0.18750, 0.12500, 0.25000, 0.12500, 0.18750, 0.12500, 0.00000, -0.06250, 0.06250, -0.12500, -0.06250, 0.00000, -0.18750, 0.06250, -0.25000, -0.06250, 0.00000, -0.18750, -0.06250, -0.12500, -0.37500, -0.25000, -0.18750, -0.06250, -0.25000, -0.31250, -0.56250, -0.18750, -0.25000, 0.00000, 0.06250, -0.06250, -0.37500, -0.12500, 0.06250, -0.06250, -0.25000, -0.12500, -0.18750, -0.18750, 0.12500, 0.12500, 0.00000, 0.06250, 0.12500, 0.18750, -0.25000, -0.06250, 0.06250, -0.12500, -0.06250, -0.06250, -0.37500, -0.31250, -0.06250, -0.06250, -0.18750, -0.25000, -0.56250, -0.12500, -0.12500, 0.00000, 0.00000, 0.06250, -0.37500, -0.12500, -0.06250, 0.00000, -0.31250, -0.06250, -0.18750, -0.18750, 0.06250, 0.12500, 0.06250, 0.00000, 0.18750, 0.12500, -0.18750, 0.00000, 0.06250, -0.12500, -0.06250, 0.00000, -0.31250, -0.31250, -0.06250, -0.06250, -0.12500, -0.18750, -0.43750, -0.06250, -0.12500, 0.06250, 0.06250, 0.06250, -0.37500, -0.06250, -0.06250, 0.00000, -0.31250, 0.00000, -0.18750, -0.18750, 0.06250, 0.18750, 0.00000, 0.12500, 0.12500, 0.12500, -0.18750, 0.00000, 0.12500, -0.06250, 0.00000, 0.06250, -0.31250, -0.25000, -0.06250, 0.00000, -0.06250, -0.18750, -0.37500, -0.06250, 0.00000, 0.12500, 0.06250, 0.06250, -0.25000, 0.00000, 0.00000, -0.12500, -0.31250, 0.06250, -0.12500, -0.12500, 0.06250, 0.18750, 0.00000, 0.00000, 0.12500, 0.62500, 0.06250, 0.00000, 0.18750, 0.06250, 0.00000, 0.18750, 0.06250, -0.06250, -0.06250, 0.06250, 0.06250, 0.06250, 0.12500, 0.12500, 0.12500, 0.12500, 0.06250, 0.18750, 0.25000, 0.12500, 0.06250, 0.00000, 0.00000, -0.06250, -0.06250, 0.06250, 0.00000, 0.25000, 0.31250, 0.25000, 0.12500, 0.68750, -0.06250, -0.06250, 0.12500, 0.00000, -0.12500, 0.12500, 0.06250, -0.06250, -0.06250, 0.00000, 0.00000, 0.06250, 0.06250, 0.12500, 0.06250, 0.06250, 0.06250, 0.12500, 0.12500, 0.12500, -0.06250, 0.00000, 0.12500, -0.12500, 0.00000, 0.12500, 0.06250, 0.12500, 0.25000, 0.12500, 0.18750, 0.62500, -0.06250, -0.12500, 0.12500, -0.06250, -0.25000, 0.00000, 0.00000, -0.18750, -0.12500, -0.06250, -0.06250, 0.00000, 0.00000, 0.00000, 0.00000, 0.06250, -0.06250, 0.18750, 0.06250, 0.06250, -0.12500, -0.06250, -0.06250, -0.06250, -0.06250, 0.00000, -0.06250, 0.12500, 0.25000, 0.18750, 0.12500, 0.56250, -0.06250, -0.18750, 0.06250, -0.06250, -0.25000, 0.06250, -0.06250, -0.18750, -0.18750, -0.06250, -0.06250, -0.06250, -0.06250, -0.06250, -0.06250, 0.00000, -0.12500, 0.12500, 0.06250, -0.06250, -0.06250, -0.06250, -0.06250, -0.25000, -0.06250, 0.00000, -0.06250, 0.06250, 0.12500, 0.12500, 0.18750, 0.25000, -0.31250, 0.18750, 0.06250, -0.12500, -0.43750, -0.18750, -0.56250, -0.06250, -0.31250, -0.18750, -0.31250, -0.37500, -0.37500, -0.31250, -0.43750, -0.31250, -0.31250, -0.25000, -0.25000, -0.25000, -0.12500, -0.25000, -0.18750, -0.25000, -0.31250, -0.25000, -0.18750, -0.31250, -0.25000, -0.37500, -0.25000, 0.25000, -0.25000, 0.18750, 0.18750, -0.12500, -0.37500, -0.06250, -0.56250, 0.12500, -0.18750, -0.12500, -0.12500, -0.25000, -0.25000, -0.06250, -0.25000, -0.18750, -0.12500, -0.12500, -0.12500, -0.06250, 0.00000, -0.12500, 0.00000, -0.06250, -0.18750, -0.18750, -0.06250, -0.31250, -0.12500, -0.25000, -0.18750, 0.25000, -0.18750, 0.31250, 0.31250, 0.06250, -0.18750, 0.06250, -0.31250, 0.25000, 0.06250, 0.06250, 0.12500, 0.06250, 0.06250, 0.25000, 0.06250, 0.12500, 0.18750, 0.18750, 0.18750, 0.18750, 0.25000, 0.18750, 0.18750, 0.06250, 0.00000, 0.06250, 0.06250, -0.12500, -0.06250, -0.12500, -0.06250, 0.25000, -0.12500, 0.37500, 0.37500, 0.18750, 0.00000, 0.18750, -0.12500, 0.43750, 0.25000, 0.18750, 0.31250, 0.25000, 0.25000, 0.43750, 0.31250, 0.31250, 0.31250, 0.37500, 0.31250, 0.37500, 0.43750, 0.37500, 0.31250, 0.25000, 0.12500, 0.18750, 0.12500, 0.00000, 0.06250, -0.06250, 0.06250, -0.62500, -0.18750, -0.06250, 0.12500, 0.12500, 0.12500, 0.12500, 0.06250, 0.68750, 0.00000, -0.06250, 0.12500, 0.18750, 0.12500, 0.00000, -0.31250, -0.25000, -0.12500, -0.25000, -0.12500, -0.12500, -0.06250, -0.06250, 0.12500, 0.00000, 0.00000, 0.06250, -0.06250, -0.06250, -0.18750, -0.12500, -0.06250, -0.62500, -0.18750, -0.06250, 0.18750, 0.18750, 0.12500, 0.12500, 0.12500, 0.68750, 0.06250, -0.06250, 0.12500, 0.18750, 0.12500, 0.06250, -0.25000, -0.25000, -0.12500, -0.25000, -0.12500, -0.06250, -0.12500, -0.06250, 0.12500, 0.00000, -0.06250, 0.06250, 0.00000, -0.06250, -0.25000, -0.12500, -0.12500, -0.68750, -0.25000, -0.06250, 0.18750, 0.18750, 0.12500, 0.12500, 0.06250, 0.75000, 0.06250, -0.06250, 0.12500, 0.18750, 0.12500, 0.00000, -0.31250, -0.25000, -0.18750, -0.25000, -0.12500, -0.06250, -0.12500, -0.06250, 0.18750, 0.00000, 0.06250, 0.12500, 0.00000, -0.06250, -0.18750, -0.12500, -0.18750, -0.62500, -0.25000, -0.06250, 0.12500, 0.18750, 0.12500, 0.12500, 0.06250, 0.68750, 0.00000, -0.06250, 0.12500, 0.18750, 0.06250, 0.00000, -0.31250, -0.25000, -0.18750, -0.25000, -0.12500, -0.06250, -0.06250, -0.06250, 0.12500, 0.00000, 0.00000, 0.06250, 0.06250, -0.06250, -0.18750, -0.18750, -0.06250, -0.37500, 0.12500, -0.43750, -0.18750, -0.25000, 0.12500, 0.06250, 0.18750, 0.00000, 0.25000, 0.00000, 0.06250, -0.06250, -0.12500, -0.12500, -0.18750, -0.12500, -0.12500, -0.18750, -0.18750, -0.06250, -0.12500, 0.00000, -0.12500, 0.12500, 0.12500, 0.06250, 0.25000, 0.18750, 0.00000, 0.31250, 0.25000, -0.37500, 0.25000, -0.43750, -0.25000, -0.25000, 0.12500, 0.06250, 0.18750, 0.00000, 0.18750, 0.00000, 0.06250, -0.06250, -0.12500, -0.12500, -0.18750, -0.06250, -0.12500, -0.25000, -0.25000, -0.06250, 0.00000, 0.00000, 0.00000, 0.18750, 0.12500, 0.18750, 0.18750, 0.18750, 0.00000, 0.25000, 0.18750, -0.31250, 0.31250, -0.43750, -0.25000, -0.25000, 0.12500, 0.06250, 0.18750, 0.00000, 0.18750, 0.06250, -0.06250, -0.06250, -0.18750, -0.12500, -0.25000, -0.12500, -0.12500, -0.18750, -0.18750, -0.12500, -0.06250, -0.06250, -0.06250, 0.06250, 0.12500, 0.18750, 0.25000, 0.18750, 0.00000, 0.18750, 0.12500, -0.43750, 0.25000, -0.31250, -0.18750, -0.18750, 0.12500, 0.06250, 0.12500, 0.00000, 0.18750, 0.00000, 0.00000, -0.06250, -0.25000, -0.12500, -0.25000, -0.12500, -0.06250, -0.18750, -0.25000, -0.06250, -0.06250, 0.00000, -0.12500, 0.06250, 0.06250, 0.18750, 0.12500, 0.18750, 0.06250, 0.18750, 0.18750, -1.00000, 0.00000, 0.31250, 0.12500, 0.06250, -0.18750, -0.06250, 0.00000, -0.12500, -0.06250, 0.00000, -0.12500, -0.12500, -0.12500, -0.06250, 0.00000, -0.06250, 0.00000, -0.06250, 0.00000, -0.06250, -0.06250, 0.00000, 0.00000, -0.06250, 0.00000, 0.00000, 0.00000, -0.06250, -0.06250, -0.06250, -0.12500, -1.00000, 0.06250, 0.31250, 0.12500, 0.06250, -0.25000, -0.06250, 0.06250, -0.06250, 0.00000, 0.00000, -0.12500, -0.12500, 0.00000, -0.06250, -0.06250, 0.00000, 0.00000, 0.00000, 0.00000, 0.00000, 0.00000, 0.00000, 0.00000, 0.00000, 0.12500, 0.00000, 0.00000, -0.06250, -0.06250, -0.06250, -0.06250, -1.00000, 0.00000, 0.37500, 0.12500, 0.06250, -0.12500, -0.06250, 0.12500, -0.06250, 0.00000, 0.00000, -0.06250, -0.06250, 0.00000, 0.00000, 0.06250, 0.00000, 0.06250, 0.06250, 0.00000, 0.00000, 0.00000, 0.06250, 0.00000, 0.06250, 0.00000, 0.00000, 0.00000, -0.06250, -0.06250, -0.06250, 0.00000, -1.00000, 0.00000, 0.31250, 0.12500, 0.06250, -0.12500, -0.06250, 0.12500, -0.06250, 0.00000, 0.00000, -0.06250, -0.06250, 0.00000, 0.00000, 0.06250, 0.06250, 0.06250, 0.06250, 0.00000, 0.06250, 0.06250, 0.00000, 0.00000, 0.00000, 0.06250, 0.00000, 0.00000, -0.06250, -0.06250, -0.06250, -0.06250, -0.25000, 0.31250, -0.06250, -0.25000, 0.06250, -0.06250, -0.18750, -0.06250, -0.25000, -0.06250, -0.06250, 0.00000, 0.18750, 0.25000, 0.00000, 0.43750, 0.06250, 0.18750, 0.00000, 0.06250, 0.06250, 0.00000, 0.18750, 0.25000, 0.37500, 0.31250, 0.25000, 0.06250, 0.25000, 0.12500, 0.25000, 0.00000, -0.25000, 0.37500, -0.12500, -0.18750, 0.06250, -0.12500, -0.18750, -0.06250, -0.25000, -0.06250, -0.06250, 0.00000, 0.06250, 0.25000, 0.00000, 0.37500, 0.06250, 0.12500, -0.12500, 0.00000, -0.06250, 0.00000, 0.12500, 0.18750, 0.31250, 0.25000, 0.12500, 0.00000, 0.12500, 0.12500, 0.12500, -0.06250, -0.31250, 0.31250, -0.06250, -0.25000, 0.06250, -0.12500, -0.18750, -0.12500, -0.25000, -0.12500, -0.06250, 0.00000, 0.06250, 0.31250, -0.06250, 0.31250, 0.00000, 0.06250, -0.18750, -0.06250, -0.06250, -0.12500, 0.06250, 0.12500, 0.25000, 0.18750, 0.00000, 0.06250, 0.18750, 0.18750, 0.00000, -0.12500, -0.25000, 0.37500, -0.06250, -0.18750, 0.06250, -0.06250, -0.25000, -0.12500, -0.31250, -0.12500, -0.12500, 0.00000, 0.12500, 0.31250, -0.06250, 0.25000, -0.06250, 0.06250, -0.18750, -0.06250, -0.06250, -0.18750, 0.00000, 0.12500, 0.18750, 0.18750, 0.06250, 0.00000, 0.12500, 0.12500, 0.06250, -0.18750, 0.18750, 0.00000, -0.25000, -0.18750, -0.12500, -0.06250, -0.12500, -0.18750, -0.25000, -0.37500, -0.18750, 0.00000, 0.00000, -0.12500, 0.06250, 0.00000, 0.00000, 0.00000, 0.12500, -0.06250, -0.12500, -0.31250, 0.00000, -0.18750, -0.12500, -0.12500, -0.18750, -0.06250, 0.00000, -0.18750, 0.18750, 0.12500, 0.18750, 0.12500, -0.25000, -0.18750, -0.12500, 0.00000, -0.06250, -0.12500, -0.18750, -0.31250, -0.12500, 0.06250, 0.12500, -0.06250, 0.12500, 0.18750, 0.06250, 0.06250, 0.18750, 0.00000, 0.00000, -0.18750, 0.00000, -0.06250, -0.06250, -0.12500, -0.06250, -0.12500, 0.06250, -0.12500, 0.31250, 0.31250, 0.25000, 0.12500, -0.25000, -0.18750, -0.12500, 0.12500, 0.00000, -0.06250, -0.12500, -0.18750, -0.06250, 0.18750, 0.25000, 0.00000, 0.31250, 0.31250, 0.18750, 0.18750, 0.37500, 0.12500, 0.06250, -0.12500, 0.18750, 0.06250, 0.00000, 0.12500, 0.12500, 0.06250, 0.18750, 0.06250, 0.25000, 0.43750, 0.18750, 0.06250, -0.18750, -0.12500, 0.00000, 0.12500, 0.06250, 0.00000, -0.06250, -0.12500, -0.06250, 0.25000, 0.31250, 0.06250, 0.37500, 0.37500, 0.25000, 0.18750, 0.43750, 0.18750, 0.12500, 0.00000, 0.31250, 0.18750, 0.06250, 0.12500, 0.18750, 0.06250, 0.12500, 0.06250, 0.43750, 0.50000, -0.43750, -0.12500, 0.12500, 0.06250, 0.12500, -0.12500, 0.00000, 0.06250, 0.00000, 0.06250, 0.06250, 0.00000, 0.00000, 0.18750, 0.06250, 0.00000, 0.00000, 0.00000, 0.06250, 0.18750, -0.06250, -0.12500, -0.12500, -0.25000, -0.25000, -0.25000, -0.12500, -0.18750, -0.18750, -0.12500, -0.18750, -0.06250, -0.43750, -0.18750, 0.12500, 0.06250, 0.06250, -0.12500, 0.00000, 0.00000, -0.06250, 0.00000, 0.00000, 0.00000, -0.06250, 0.18750, 0.00000, -0.06250, 0.00000, 0.00000, 0.00000, 0.18750, -0.12500, -0.18750, -0.12500, -0.25000, -0.31250, -0.18750, -0.12500, -0.12500, -0.18750, -0.06250, -0.31250, -0.18750, -0.43750, -0.25000, 0.12500, 0.06250, 0.06250, -0.25000, -0.12500, 0.00000, -0.06250, -0.06250, 0.00000, -0.12500, -0.12500, 0.12500, -0.06250, -0.12500, -0.12500, -0.06250, -0.06250, 0.12500, -0.12500, -0.18750, -0.18750, -0.37500, -0.37500, -0.18750, -0.12500, -0.18750, -0.31250, -0.12500, -0.18750, -0.18750, -0.43750, -0.18750, 0.00000, -0.06250, 0.00000, -0.25000, -0.18750, -0.12500, -0.12500, -0.06250, 0.00000, -0.12500, -0.18750, 0.06250, -0.12500, -0.18750, -0.18750, -0.06250, -0.12500, 0.12500, -0.12500, -0.18750, -0.25000, -0.31250, -0.31250, -0.31250, -0.06250, -0.12500, -0.25000, -0.12500, -0.31250, -0.12500, -0.25000, 0.12500, 0.25000, -0.31250, 0.12500, -0.12500, -0.37500, -0.06250, -0.18750, -0.06250, -0.06250, -0.12500, 0.06250, 0.50000, -0.18750, 0.12500, -0.06250, 0.06250, -0.06250, 0.31250, -0.06250, 0.06250, -0.06250, 0.00000, 0.06250, 0.00000, 0.12500, 0.18750, 0.12500, 0.25000, 0.06250, -0.06250, -0.18750, 0.12500, 0.25000, -0.31250, 0.12500, -0.12500, -0.37500, 0.00000, -0.18750, -0.06250, -0.06250, -0.12500, 0.06250, 0.50000, -0.25000, 0.12500, -0.06250, 0.00000, -0.06250, 0.37500, -0.12500, 0.00000, -0.06250, 0.00000, 0.06250, -0.06250, 0.06250, 0.18750, 0.12500, 0.18750, -0.06250, -0.12500, -0.25000, 0.06250, 0.31250, -0.31250, 0.12500, -0.12500, -0.37500, 0.00000, -0.18750, -0.06250, -0.06250, -0.12500, 0.06250, 0.50000, -0.18750, 0.12500, -0.06250, 0.06250, -0.06250, 0.31250, -0.12500, 0.00000, -0.12500, -0.12500, 0.06250, -0.06250, 0.06250, 0.18750, 0.06250, 0.18750, 0.06250, -0.18750, -0.18750, 0.12500, 0.25000, -0.31250, 0.12500, -0.12500, -0.37500, 0.00000, -0.12500, -0.06250, 0.00000, -0.18750, 0.06250, 0.56250, -0.18750, 0.06250, -0.06250, 0.06250, -0.12500, 0.37500, -0.06250, 0.00000, -0.06250, -0.06250, 0.06250, -0.12500, -0.06250, 0.18750, 0.12500, 0.18750, 0.00000, -0.31250, 0.50000, 0.37500, 0.81250, 0.37500, 0.31250, -0.06250, 0.25000, -0.12500, 0.18750, 0.18750, 0.00000, 0.12500, 0.18750, -0.06250, 0.25000, 0.06250, 0.12500, 0.00000, 0.00000, -0.12500, 0.06250, 0.06250, -0.06250, 0.12500, -0.06250, -0.06250, -0.12500, -0.06250, -0.12500, -0.06250, -0.12500, -0.12500, 0.50000, 0.37500, 0.81250, 0.43750, 0.31250, -0.06250, 0.25000, -0.25000, 0.18750, 0.12500, 0.00000, 0.06250, 0.12500, 0.00000, 0.18750, 0.06250, 0.06250, 0.00000, 0.06250, -0.12500, 0.00000, 0.06250, -0.12500, 0.06250, -0.12500, -0.06250, -0.12500, 0.00000, -0.12500, -0.12500, -0.12500, -0.18750, 0.43750, 0.31250, 0.81250, 0.37500, 0.25000, -0.06250, 0.18750, -0.31250, 0.12500, 0.06250, -0.06250, 0.06250, 0.06250, -0.06250, 0.18750, 0.00000, 0.06250, 0.00000, -0.06250, -0.25000, 0.00000, 0.00000, 0.00000, 0.00000, -0.06250, -0.18750, -0.18750, -0.06250, -0.18750, -0.18750, -0.12500, -0.18750, 0.43750, 0.25000, 0.68750, 0.37500, 0.18750, -0.12500, 0.12500, -0.25000, 0.12500, 0.00000, -0.06250, 0.00000, 0.00000, -0.06250, 0.12500, -0.06250, 0.06250, -0.06250, -0.06250, -0.25000, -0.06250, 0.00000, -0.12500, 0.06250, -0.06250, -0.18750, -0.18750, -0.18750, -0.12500, -0.06250, -0.25000, -0.18750, -0.50000, 0.00000, -0.06250, -0.06250, 0.12500, -0.12500, -0.12500, -0.06250, -0.12500, -0.12500, -0.12500, 0.12500, 0.18750, 0.25000, 0.06250, 0.37500, 0.18750, 0.25000, 0.12500, 0.18750, 0.18750, 0.18750, 0.31250, 0.25000, 0.37500, 0.25000, 0.25000, 0.12500, 0.18750, 0.18750, 0.18750, 0.12500, -0.43750, 0.06250, 0.00000, -0.06250, 0.18750, -0.06250, -0.12500, -0.06250, -0.12500, -0.12500, -0.12500, 0.12500, 0.18750, 0.25000, 0.00000, 0.18750, 0.12500, 0.12500, 0.06250, 0.12500, -0.06250, 0.12500, 0.12500, 0.12500, 0.12500, 0.12500, 0.12500, 0.06250, 0.06250, 0.12500, 0.06250, 0.12500, -0.50000, 0.12500, 0.12500, -0.12500, 0.18750, -0.06250, -0.12500, -0.06250, -0.12500, -0.12500, -0.12500, 0.06250, 0.18750, 0.25000, -0.06250, 0.25000, 0.06250, 0.06250, -0.12500, 0.06250, -0.06250, -0.06250, -0.06250, -0.06250, 0.06250, 0.06250, 0.00000, 0.06250, 0.06250, 0.12500, -0.18750, -0.18750, -0.50000, 0.06250, 0.12500, -0.06250, 0.25000, 0.00000, -0.12500, -0.06250, -0.12500, -0.18750, -0.12500, 0.06250, 0.18750, 0.31250, -0.06250, 0.12500, 0.06250, 0.06250, -0.18750, 0.00000, -0.06250, -0.12500, -0.12500, -0.06250, 0.12500, 0.06250, -0.06250, 0.00000, 0.00000, 0.06250, -0.12500, -0.31250, -0.06250, 0.18750, -0.12500, -0.25000, -0.25000, -0.18750, -0.31250, -0.06250, -0.12500, -0.50000, -0.43750, -0.06250, 0.00000, 0.06250, -0.18750, -0.18750, -0.18750, -0.12500, -0.06250, 0.00000, -0.06250, -0.18750, 0.00000, 0.06250, 0.12500, 0.18750, 0.12500, 0.00000, 0.12500, 0.18750, 0.25000, 0.18750, -0.06250, 0.25000, -0.12500, -0.25000, -0.18750, -0.18750, -0.31250, -0.06250, -0.12500, -0.56250, -0.43750, -0.12500, 0.00000, 0.06250, -0.18750, -0.18750, -0.25000, -0.18750, -0.06250, 0.00000, -0.12500, -0.25000, 0.00000, 0.06250, 0.06250, 0.12500, 0.00000, 0.00000, 0.12500, 0.12500, 0.18750, 0.12500, 0.00000, 0.25000, -0.12500, -0.25000, -0.18750, -0.18750, -0.37500, -0.12500, -0.12500, -0.62500, -0.43750, -0.12500, -0.06250, 0.06250, -0.25000, -0.18750, -0.25000, -0.25000, -0.18750, -0.06250, -0.18750, -0.37500, 0.00000, -0.06250, -0.06250, 0.06250, 0.12500, -0.06250, 0.06250, 0.18750, 0.12500, 0.00000, 0.00000, 0.25000, -0.12500, -0.25000, -0.18750, -0.18750, -0.37500, -0.12500, -0.18750, -0.56250, -0.43750, -0.12500, -0.06250, 0.00000, -0.25000, -0.18750, -0.31250, -0.25000, -0.25000, -0.06250, -0.25000, -0.37500, -0.18750, -0.06250, -0.06250, -0.06250, 0.00000, -0.06250, 0.12500, 0.06250, 0.00000, 0.00000, 0.12500, -0.18750, 0.12500, 0.00000, 0.06250, -0.06250, 0.06250, 0.12500, 0.12500, 0.18750, 0.06250, 0.00000, 0.18750, 0.00000, 0.00000, 0.00000, 0.06250, 0.00000, 0.06250, 0.18750, 0.37500, 0.37500, 0.31250, 0.43750, 0.43750, 0.25000, 0.37500, 0.18750, 0.18750, 0.31250, 0.12500, 0.12500, 0.12500, -0.25000, 0.12500, -0.06250, 0.00000, -0.12500, 0.12500, 0.06250, 0.06250, 0.18750, 0.00000, 0.00000, 0.06250, 0.06250, 0.00000, 0.00000, 0.00000, 0.00000, 0.06250, 0.12500, 0.31250, 0.43750, 0.31250, 0.37500, 0.37500, 0.25000, 0.37500, 0.25000, 0.12500, 0.25000, 0.18750, 0.12500, 0.12500, -0.25000, 0.12500, -0.06250, 0.00000, -0.18750, 0.06250, 0.06250, 0.00000, 0.06250, 0.00000, -0.06250, 0.00000, -0.12500, -0.06250, -0.12500, -0.06250, -0.06250, 0.00000, 0.06250, 0.25000, 0.37500, 0.37500, 0.37500, 0.31250, 0.18750, 0.37500, 0.12500, 0.12500, 0.12500, 0.06250, 0.00000, 0.12500, -0.25000, 0.06250, -0.12500, -0.06250, -0.25000, 0.00000, 0.00000, -0.06250, 0.06250, -0.06250, -0.12500, 0.00000, -0.12500, -0.18750, -0.18750, -0.06250, -0.12500, -0.06250, 0.06250, 0.12500, 0.37500, 0.25000, 0.25000, 0.31250, 0.12500, 0.25000, 0.06250, 0.00000, 0.18750, 0.00000, -0.06250, -0.50000, -0.25000, 0.06250, -0.06250, 0.00000, 0.12500, 0.06250, 0.18750, -0.37500, 0.25000, 0.00000, 0.00000, 0.12500, -0.12500, 0.06250, 0.18750, 0.25000, 0.06250, 0.06250, -0.31250, 0.06250, 0.06250, -0.12500, -0.31250, 0.00000, -0.06250, -0.37500, -0.06250, -0.06250, -0.12500, -0.18750, -0.06250, -0.68750, -0.25000, 0.06250, -0.06250, 0.06250, 0.18750, 0.06250, 0.18750, -0.43750, 0.25000, -0.06250, 0.00000, 0.12500, -0.12500, 0.12500, 0.18750, 0.25000, 0.06250, 0.06250, -0.25000, 0.00000, 0.12500, -0.12500, -0.31250, 0.06250, -0.12500, -0.31250, -0.06250, -0.12500, -0.12500, 0.00000, 0.00000, -0.68750, -0.18750, 0.06250, 0.00000, 0.06250, 0.18750, 0.12500, 0.12500, -0.37500, 0.25000, 0.00000, 0.00000, 0.12500, -0.12500, 0.12500, 0.25000, 0.31250, 0.12500, 0.00000, -0.25000, 0.06250, 0.12500, -0.06250, -0.25000, 0.00000, -0.06250, -0.31250, -0.06250, -0.06250, -0.12500, -0.06250, -0.06250, -0.56250, -0.25000, 0.06250, -0.06250, 0.00000, 0.18750, 0.06250, 0.12500, -0.37500, 0.25000, 0.00000, -0.06250, 0.06250, -0.12500, 0.06250, 0.25000, 0.25000, 0.06250, 0.06250, -0.25000, 0.00000, 0.06250, -0.06250, -0.25000, 0.00000, -0.06250, -0.31250, -0.06250, -0.12500, -0.12500, 0.00000, -0.12500, 0.00000, -0.06250, -0.62500, -0.06250, -0.18750, 0.25000, 0.12500, 0.56250, -0.06250, -0.18750, -0.06250, -0.18750, -0.25000, -0.62500, -0.18750, -0.50000, -0.31250, -0.31250, -0.06250, -0.18750, -0.18750, -0.18750, -0.06250, 0.06250, -0.25000, -0.06250, 0.00000, 0.00000, -0.12500, -0.12500, -0.18750, 0.00000, 0.00000, 0.12500, -0.62500, -0.06250, -0.12500, 0.31250, 0.18750, 0.62500, 0.00000, -0.12500, -0.06250, -0.12500, -0.18750, -0.62500, -0.12500, -0.43750, -0.31250, -0.25000, 0.00000, -0.12500, -0.12500, -0.18750, 0.00000, 0.06250, -0.18750, 0.06250, 0.00000, 0.00000, -0.18750, -0.06250, -0.12500, 0.06250, 0.00000, 0.18750, -0.50000, 0.06250, -0.06250, 0.37500, 0.25000, 0.75000, 0.06250, -0.06250, 0.00000, -0.06250, -0.12500, -0.43750, -0.06250, -0.31250, -0.25000, -0.18750, 0.00000, -0.06250, -0.12500, -0.06250, 0.06250, 0.12500, -0.12500, 0.00000, 0.06250, -0.06250, -0.12500, 0.00000, -0.12500, 0.06250, 0.06250, 0.18750, -0.37500, 0.06250, 0.00000, 0.37500, 0.31250, 0.68750, 0.06250, 0.00000, 0.00000, -0.06250, -0.06250, -0.43750, 0.00000, -0.31250, -0.25000, -0.12500, 0.06250, -0.06250, -0.06250, 0.00000, 0.06250, 0.18750, -0.06250, 0.06250, 0.06250, 0.06250, -0.12500, 0.00000, -0.18750, 0.06250, -0.12500, 0.25000, -0.18750, -0.25000, -0.06250, 0.18750, -0.06250, 0.25000, -0.18750, 0.00000, -0.06250, -0.06250, -0.06250, -0.06250, -0.06250, -0.06250, -0.12500, -0.12500, -0.12500, -0.06250, -0.06250, -0.18750, -0.12500, -0.18750, -0.18750, -0.25000, -0.25000, -0.37500, -0.18750, -0.18750, -0.18750, -0.18750, -0.12500, 0.31250, -0.12500, -0.18750, -0.06250, 0.31250, 0.06250, 0.37500, -0.06250, 0.06250, 0.00000, 0.06250, 0.06250, 0.06250, 0.06250, 0.12500, 0.06250, 0.00000, 0.00000, 0.06250, 0.00000, -0.06250, 0.06250, -0.06250, -0.12500, -0.06250, -0.12500, -0.12500, -0.12500, -0.12500, -0.18750, -0.06250, -0.12500, 0.37500, 0.00000, -0.12500, 0.06250, 0.43750, 0.12500, 0.56250, 0.06250, 0.18750, 0.12500, 0.25000, 0.18750, 0.25000, 0.31250, 0.31250, 0.12500, 0.18750, 0.18750, 0.18750, 0.31250, 0.12500, 0.25000, 0.18750, 0.06250, 0.18750, 0.06250, 0.00000, 0.00000, -0.12500, 0.12500, 0.06250, -0.12500, 0.37500, 0.06250, -0.06250, 0.12500, 0.43750, 0.18750, 0.56250, 0.12500, 0.31250, 0.12500, 0.31250, 0.25000, 0.18750, 0.31250, 0.31250, 0.25000, 0.18750, 0.31250, 0.25000, 0.31250, 0.25000, 0.31250, 0.25000, 0.18750, 0.25000, 0.18750, 0.00000, 0.12500, 0.00000, 0.12500, 0.25000, 0.12500, 0.18750, 0.62500, 0.12500, 0.37500, 0.31250, 0.06250, 0.31250, 0.31250, 0.18750, 0.06250, 0.18750, 0.12500, 0.18750, 0.12500, 0.06250, 0.06250, 0.06250, 0.25000, 0.25000, 0.06250, 0.06250, 0.12500, 0.06250, 0.00000, 0.06250, 0.18750, 0.12500, 0.18750, 0.06250, 0.06250, 0.12500, 0.06250, 0.00000, 0.56250, 0.00000, 0.31250, 0.25000, -0.06250, 0.18750, 0.18750, 0.06250, -0.06250, 0.00000, 0.00000, 0.00000, -0.06250, -0.06250, -0.12500, -0.06250, 0.06250, 0.12500, -0.06250, -0.12500, -0.06250, -0.06250, -0.06250, 0.00000, 0.06250, 0.12500, 0.00000, 0.00000, 0.12500, 0.06250, 0.00000, -0.12500, 0.43750, -0.06250, 0.18750, 0.06250, -0.25000, -0.06250, 0.00000, -0.18750, -0.18750, -0.25000, -0.25000, -0.31250, -0.31250, -0.43750, -0.43750, -0.31250, -0.12500, -0.12500, -0.25000, -0.25000, -0.18750, -0.18750, -0.25000, -0.12500, -0.12500, 0.00000, 0.06250, 0.00000, 0.06250, 0.00000, 0.00000, -0.18750, 0.18750, -0.12500, 0.00000, -0.12500, -0.31250, -0.25000, -0.12500, -0.37500, -0.25000, -0.43750, -0.50000, -0.43750, -0.50000, -0.62500, -0.62500, -0.50000, -0.25000, -0.18750, -0.43750, -0.43750, -0.31250, -0.31250, -0.37500, -0.25000, -0.06250, 0.00000, -0.12500, -0.06250, 0.06250, 0.00000, -0.37500, -0.12500, -0.12500, -0.12500, -0.18750, 0.00000, 0.00000, -0.18750, 0.00000, 0.00000, -0.18750, -0.06250, -0.12500, -0.18750, -0.06250, -0.12500, -0.06250, -0.12500, -0.18750, -0.25000, 0.06250, 0.00000, 0.00000, -0.06250, 0.06250, 0.06250, 0.00000, -0.12500, 0.06250, -0.06250, 0.18750, 0.31250, -0.37500, -0.18750, -0.12500, -0.06250, -0.12500, 0.12500, 0.00000, -0.18750, 0.06250, 0.06250, -0.18750, 0.06250, 0.00000, -0.12500, 0.06250, -0.06250, 0.00000, -0.12500, -0.06250, -0.18750, 0.12500, 0.00000, 0.18750, -0.06250, 0.18750, 0.12500, 0.12500, -0.06250, 0.25000, 0.00000, 0.18750, 0.43750, -0.37500, -0.18750, -0.12500, -0.06250, -0.06250, 0.12500, 0.06250, -0.12500, 0.06250, 0.12500, -0.12500, 0.06250, 0.00000, -0.06250, 0.12500, 0.00000, 0.06250, -0.06250, -0.06250, -0.12500, 0.25000, 0.12500, 0.25000, 0.00000, 0.12500, 0.18750, 0.12500, -0.06250, 0.25000, 0.18750, 0.43750, 0.62500, -0.37500, -0.25000, -0.06250, -0.06250, -0.12500, 0.12500, 0.06250, -0.12500, 0.06250, 0.12500, -0.12500, 0.00000, 0.00000, -0.12500, 0.18750, 0.00000, 0.06250, 0.00000, 0.00000, -0.18750, 0.12500, 0.06250, 0.31250, -0.06250, 0.18750, 0.12500, 0.12500, 0.00000, 0.06250, 0.06250, 0.50000, 0.50000, 0.25000, 0.56250, 0.06250, -0.31250, 0.00000, -0.25000, -0.37500, -0.37500, -0.37500, -0.25000, -0.25000, 0.06250, 0.06250, 0.68750, -0.06250, 0.12500, 0.06250, 0.00000, 0.00000, 0.31250, 0.00000, -0.06250, -0.06250, 0.00000, 0.00000, 0.06250, 0.00000, 0.06250, 0.06250, 0.25000, 0.00000, -0.06250, 0.31250, 0.62500, 0.12500, -0.31250, 0.00000, -0.25000, -0.37500, -0.43750, -0.37500, -0.25000, -0.25000, 0.00000, 0.06250, 0.62500, -0.06250, 0.06250, 0.06250, 0.00000, 0.00000, 0.25000, 0.00000, 0.00000, -0.06250, 0.00000, 0.00000, 0.06250, 0.06250, 0.06250, 0.06250, 0.25000, 0.00000, 0.00000, 0.25000, 0.62500, 0.06250, -0.31250, 0.00000, -0.31250, -0.43750, -0.43750, -0.37500, -0.31250, -0.25000, -0.06250, 0.00000, 0.56250, -0.18750, 0.06250, 0.00000, -0.06250, -0.06250, 0.25000, -0.06250, -0.06250, -0.12500, 0.00000, -0.06250, 0.00000, 0.06250, 0.06250, 0.06250, 0.25000, 0.00000, 0.00000, 0.25000, 0.50000, 0.06250, -0.37500, 0.00000, -0.31250, -0.43750, -0.50000, -0.37500, -0.31250, -0.31250, -0.12500, 0.00000, 0.50000, -0.18750, 0.06250, 0.00000, -0.06250, -0.06250, 0.25000, -0.06250, 0.00000, -0.12500, -0.06250, -0.06250, 0.00000, 0.06250, 0.06250, 0.06250, 0.31250, 0.00000, 0.00000, 0.62500, 0.06250, -0.12500, 0.25000, 0.00000, -0.18750, 0.18750, 0.37500, -0.12500, 0.12500, 0.06250, 0.00000, -0.25000, 0.12500, 0.12500, 0.18750, -0.12500, -0.25000, -0.06250, -0.12500, 0.31250, -0.12500, -0.18750, 0.12500, -0.25000, 0.56250, -0.12500, -0.50000, -0.25000, 0.00000, -0.06250, -0.06250, 0.56250, 0.00000, -0.18750, 0.25000, -0.06250, -0.25000, 0.18750, 0.31250, -0.12500, 0.06250, 0.12500, 0.00000, -0.25000, 0.12500, 0.06250, 0.18750, -0.06250, -0.18750, -0.06250, -0.12500, 0.31250, -0.06250, -0.18750, 0.12500, -0.18750, 0.56250, -0.12500, -0.50000, -0.18750, 0.06250, 0.00000, -0.06250, 0.56250, 0.00000, -0.18750, 0.25000, 0.00000, -0.18750, 0.12500, 0.31250, -0.12500, 0.06250, 0.06250, 0.00000, -0.25000, 0.12500, 0.06250, 0.25000, -0.06250, -0.18750, -0.06250, -0.12500, 0.31250, -0.06250, -0.12500, 0.18750, -0.25000, 0.62500, -0.06250, -0.50000, -0.18750, 0.06250, -0.06250, -0.06250, 0.62500, 0.00000, -0.18750, 0.25000, 0.00000, -0.25000, 0.18750, 0.31250, -0.12500, 0.06250, 0.06250, 0.00000, -0.25000, 0.06250, 0.06250, 0.25000, -0.06250, -0.18750, -0.06250, -0.12500, 0.31250, -0.06250, -0.18750, 0.18750, -0.18750, 0.50000, -0.12500, -0.56250, -0.18750, 0.12500, -0.06250, 0.00000, 0.18750, -0.06250, 0.00000, -0.06250, 0.06250, 0.00000, 0.06250, -0.25000, -0.31250, 0.00000, 0.06250, -0.06250, 0.00000, 0.00000, -0.06250, -0.06250, 0.00000, -0.06250, -0.12500, -0.31250, -0.37500, -0.31250, -0.56250, -0.68750, -0.37500, -0.68750, -0.56250, -0.18750, -0.18750, -0.06250, -0.18750, -0.12500, 0.12500, -0.06250, 0.06250, -0.06250, 0.06250, 0.00000, 0.06250, -0.18750, -0.18750, 0.06250, 0.06250, 0.00000, 0.06250, -0.06250, 0.00000, 0.00000, 0.06250, -0.06250, -0.12500, -0.31250, -0.31250, -0.25000, -0.56250, -0.62500, -0.25000, -0.62500, -0.62500, -0.12500, -0.12500, -0.18750, -0.18750, -0.18750, 0.12500, 0.00000, 0.06250, 0.00000, 0.12500, 0.06250, 0.06250, -0.18750, -0.18750, 0.18750, 0.06250, 0.00000, 0.12500, 0.06250, 0.06250, 0.12500, 0.18750, 0.06250, 0.00000, -0.25000, -0.31250, -0.25000, -0.50000, -0.56250, -0.18750, -0.62500, -0.62500, -0.06250, -0.12500, -0.06250, -0.18750, -0.18750, 0.12500, -0.06250, 0.12500, 0.00000, 0.12500, 0.18750, 0.12500, -0.12500, -0.12500, 0.18750, 0.12500, 0.12500, 0.18750, 0.12500, 0.18750, 0.12500, 0.25000, 0.06250, 0.06250, -0.18750, -0.18750, -0.18750, -0.37500, -0.50000, -0.25000, -0.56250, -0.56250, -0.12500, -0.06250, -0.06250, -0.12500, -0.12500, -0.18750, -0.18750, -0.25000, -0.43750, -0.25000, -0.12500, -0.25000, -0.12500, -0.43750, 0.06250, 0.06250, -0.12500, -0.06250, 0.18750, -0.12500, 0.06250, 0.06250, 0.06250, 0.00000, 0.25000, 0.06250, 0.18750, 0.06250, -0.12500, 0.06250, 0.00000, 0.06250, 0.18750, 0.25000, 0.25000, 0.18750, 0.18750, -0.18750, -0.31250, -0.25000, -0.50000, -0.31250, -0.18750, -0.25000, -0.12500, -0.43750, 0.00000, 0.00000, -0.12500, -0.12500, 0.18750, -0.12500, 0.06250, 0.12500, 0.12500, 0.00000, 0.25000, 0.00000, 0.12500, 0.06250, -0.06250, 0.06250, 0.06250, 0.06250, 0.25000, 0.25000, 0.31250, 0.25000, 0.12500, -0.18750, -0.25000, -0.31250, -0.43750, -0.31250, -0.18750, -0.25000, -0.18750, -0.43750, 0.00000, 0.00000, -0.18750, -0.06250, 0.12500, -0.18750, 0.00000, 0.12500, 0.06250, 0.06250, 0.25000, 0.06250, 0.12500, 0.06250, 0.00000, 0.06250, 0.06250, 0.06250, 0.25000, 0.25000, 0.31250, 0.31250, 0.25000, -0.18750, -0.25000, -0.31250, -0.43750, -0.31250, -0.18750, -0.18750, -0.12500, -0.43750, 0.06250, 0.06250, -0.18750, -0.12500, 0.12500, -0.12500, 0.06250, 0.06250, 0.12500, 0.06250, 0.25000, 0.06250, 0.18750, 0.00000, -0.06250, 0.06250, 0.12500, 0.12500, 0.25000, 0.18750, 0.25000, 0.18750, 0.12500, -0.12500, 0.00000, -0.50000, -0.25000, -0.31250, 0.00000, -0.12500, 0.25000, 0.00000, -0.12500, -0.12500, -0.12500, -0.18750, -0.12500, -0.18750, -0.12500, -0.25000, -0.18750, -0.18750, 0.06250, 0.06250, 0.12500, 0.18750, 0.56250, 0.06250, 0.18750, 0.18750, -0.12500, -0.25000, -0.31250, -0.31250, -0.31250, -0.12500, 0.06250, -0.56250, -0.25000, -0.31250, 0.06250, -0.12500, 0.31250, 0.00000, -0.06250, -0.12500, -0.06250, -0.18750, -0.12500, -0.18750, -0.12500, -0.18750, -0.12500, -0.18750, 0.06250, 0.12500, 0.18750, 0.25000, 0.62500, 0.12500, 0.31250, 0.25000, -0.12500, -0.25000, -0.31250, -0.25000, -0.18750, -0.12500, 0.12500, -0.50000, -0.25000, -0.31250, 0.06250, -0.12500, 0.37500, 0.06250, -0.06250, -0.12500, -0.06250, -0.12500, -0.12500, -0.12500, -0.18750, -0.25000, -0.12500, -0.12500, 0.06250, 0.18750, 0.25000, 0.25000, 0.62500, 0.18750, 0.25000, 0.25000, -0.12500, -0.18750, -0.31250, -0.18750, -0.25000, -0.12500, 0.06250, -0.43750, -0.18750, -0.25000, 0.06250, -0.06250, 0.31250, 0.00000, -0.12500, -0.12500, 0.00000, -0.18750, -0.12500, -0.12500, -0.12500, -0.25000, -0.18750, -0.12500, 0.06250, 0.18750, 0.18750, 0.25000, 0.56250, 0.12500, 0.25000, 0.25000, -0.06250, -0.25000, -0.37500, -0.18750, -0.18750, 0.43750, -0.25000, 0.12500, 0.37500, 0.18750, -0.12500, 0.18750, -0.06250, 0.25000, 0.00000, 0.00000, 0.06250, -0.06250, -0.06250, 0.06250, -0.06250, -0.25000, -0.31250, -0.18750, -0.18750, -0.06250, -0.31250, -0.12500, 0.06250, -0.12500, 0.00000, -0.06250, -0.31250, -0.18750, 0.00000, -0.06250, -0.12500, 0.50000, -0.43750, 0.06250, 0.31250, 0.12500, -0.18750, 0.12500, -0.06250, 0.18750, -0.06250, -0.06250, -0.06250, -0.12500, 0.00000, 0.00000, -0.18750, -0.25000, -0.31250, -0.25000, -0.25000, -0.12500, -0.18750, -0.12500, 0.12500, -0.18750, -0.06250, -0.06250, -0.37500, -0.18750, 0.06250, 0.00000, -0.06250, 0.43750, -0.50000, -0.06250, 0.25000, 0.06250, -0.25000, 0.06250, -0.12500, 0.18750, -0.06250, -0.06250, 0.00000, -0.12500, -0.12500, -0.06250, -0.12500, -0.25000, -0.31250, -0.25000, -0.18750, -0.06250, -0.18750, -0.12500, 0.12500, -0.12500, -0.06250, 0.00000, -0.25000, -0.12500, -0.06250, 0.00000, 0.06250, 0.43750, -0.37500, -0.12500, 0.18750, 0.00000, -0.31250, 0.06250, -0.12500, 0.12500, -0.12500, -0.06250, -0.06250, -0.12500, -0.12500, -0.06250, -0.12500, -0.25000, -0.31250, -0.25000, -0.18750, -0.06250, -0.18750, -0.06250, 0.06250, -0.18750, 0.00000, -0.06250, -0.25000, -0.12500, 0.00000, 0.00000, 0.06250, -0.25000, 0.25000, 0.12500, -0.06250, 0.18750, 0.00000, 0.00000, 0.00000, 0.00000, 0.06250, 0.00000, 0.00000, 0.25000, 0.31250, 0.00000, 0.31250, 0.06250, 0.06250, -0.18750, -0.18750, -0.12500, 0.06250, 0.00000, -0.06250, 0.18750, 0.18750, 0.00000, 0.06250, 0.25000, 0.00000, 0.12500, -0.06250, -0.25000, 0.31250, 0.18750, -0.06250, 0.18750, 0.06250, 0.00000, 0.00000, -0.06250, 0.12500, 0.00000, 0.06250, 0.25000, 0.37500, 0.06250, 0.37500, 0.06250, 0.06250, -0.25000, -0.18750, -0.06250, -0.06250, 0.06250, 0.00000, 0.25000, 0.18750, -0.06250, 0.00000, 0.18750, 0.06250, 0.25000, 0.06250, -0.25000, 0.25000, 0.25000, -0.06250, 0.18750, 0.12500, -0.06250, 0.00000, 0.00000, 0.12500, -0.06250, 0.00000, 0.25000, 0.43750, 0.06250, 0.37500, 0.06250, 0.00000, -0.25000, -0.25000, -0.06250, -0.06250, -0.06250, -0.18750, 0.25000, 0.31250, 0.00000, 0.00000, 0.25000, 0.12500, 0.25000, 0.06250, -0.18750, 0.25000, 0.18750, -0.12500, 0.12500, 0.06250, -0.06250, -0.06250, -0.06250, 0.06250, 0.00000, -0.06250, 0.18750, 0.43750, 0.00000, 0.31250, 0.00000, 0.06250, -0.25000, -0.25000, -0.06250, 0.00000, 0.00000, -0.06250, 0.25000, 0.25000, 0.00000, 0.00000, 0.18750, 0.06250, 0.37500, 0.06250, -0.43750, -0.25000, 0.12500, -0.18750, -0.06250, 0.00000, -0.12500, -0.18750, 0.12500, -0.06250, 0.00000, -0.18750, -0.12500, -0.37500, -0.31250, -0.37500, -0.06250, -0.06250, -0.06250, 0.00000, -0.06250, 0.18750, 0.06250, 0.18750, 0.37500, 0.00000, 0.12500, 0.25000, 0.31250, 0.00000, 0.00000, 0.00000, -0.56250, -0.12500, 0.12500, -0.12500, -0.12500, 0.00000, -0.12500, -0.25000, 0.12500, -0.06250, 0.00000, -0.18750, -0.18750, -0.43750, -0.31250, -0.37500, -0.06250, 0.00000, -0.06250, 0.00000, -0.06250, 0.12500, 0.06250, 0.18750, 0.31250, -0.12500, 0.12500, 0.37500, 0.31250, 0.06250, 0.18750, 0.00000, -0.50000, -0.18750, 0.18750, -0.12500, -0.06250, 0.00000, -0.18750, -0.25000, 0.12500, -0.06250, 0.00000, -0.18750, -0.18750, -0.43750, -0.31250, -0.37500, -0.12500, 0.00000, -0.06250, -0.06250, -0.12500, 0.06250, 0.12500, 0.12500, 0.37500, 0.00000, 0.06250, 0.37500, 0.18750, 0.06250, 0.18750, -0.06250, -0.43750, -0.12500, 0.18750, -0.12500, -0.06250, 0.06250, -0.12500, -0.18750, 0.12500, 0.00000, 0.00000, -0.18750, -0.12500, -0.37500, -0.31250, -0.37500, -0.12500, 0.00000, -0.12500, -0.06250, -0.06250, 0.12500, 0.06250, 0.18750, 0.37500, -0.06250, 0.06250, 0.31250, 0.25000, 0.06250, 0.12500, -0.06250, 0.06250, 0.37500, 0.00000, -0.12500, -0.06250, 0.06250, -0.06250, 0.25000, -0.18750, -0.18750, -0.06250, 0.25000, 0.18750, 0.18750, 0.25000, 0.43750, 0.25000, 0.25000, 0.37500, 0.25000, 0.31250, 0.06250, 0.18750, 0.06250, 0.06250, 0.25000, -0.06250, -0.12500, 0.00000, -0.06250, 0.06250, 0.00000, 0.06250, 0.50000, -0.06250, -0.12500, -0.06250, 0.00000, -0.06250, 0.31250, -0.25000, -0.12500, -0.12500, 0.18750, 0.18750, 0.18750, 0.12500, 0.37500, 0.18750, 0.25000, 0.25000, 0.25000, 0.18750, 0.00000, 0.12500, 0.06250, -0.06250, 0.12500, 0.00000, -0.18750, 0.00000, -0.06250, -0.06250, -0.25000, 0.12500, 0.43750, 0.00000, -0.12500, -0.06250, 0.00000, -0.12500, 0.31250, -0.25000, -0.12500, -0.12500, 0.12500, 0.12500, 0.06250, 0.18750, 0.31250, 0.12500, 0.18750, 0.25000, 0.12500, 0.18750, -0.12500, 0.00000, -0.06250, 0.00000, -0.06250, -0.06250, -0.31250, -0.18750, -0.12500, -0.31250, -0.25000, 0.06250, 0.37500, 0.00000, -0.12500, -0.06250, 0.00000, -0.12500, 0.18750, -0.25000, -0.18750, -0.12500, 0.12500, 0.12500, 0.12500, 0.12500, 0.25000, 0.06250, 0.12500, 0.18750, 0.18750, 0.18750, -0.18750, -0.06250, -0.12500, -0.06250, 0.06250, -0.18750, -0.18750, -0.12500, -0.25000, -0.25000, -0.31250, -0.25000, 0.12500, 0.00000, -0.12500, 0.06250, -0.12500, -0.12500, -0.18750, -0.12500, -0.06250, -0.12500, 0.12500, 0.25000, 0.18750, 0.06250, 0.43750, 0.18750, 0.18750, 0.06250, -0.06250, 0.18750, 0.06250, 0.37500, 0.12500, 0.43750, 0.31250, 0.18750, 0.00000, 0.25000, 0.00000, 0.12500, 0.00000, -0.25000, 0.18750, 0.06250, -0.18750, 0.06250, -0.06250, -0.12500, -0.12500, -0.18750, -0.06250, -0.12500, 0.06250, 0.25000, 0.25000, 0.06250, 0.37500, 0.12500, 0.18750, -0.06250, -0.12500, 0.00000, 0.00000, 0.25000, -0.06250, 0.37500, 0.18750, 0.06250, 0.00000, 0.12500, 0.00000, 0.06250, 0.00000, -0.31250, 0.18750, 0.06250, -0.12500, 0.00000, -0.06250, -0.12500, -0.18750, -0.18750, -0.12500, -0.18750, 0.00000, 0.25000, 0.18750, 0.06250, 0.25000, 0.06250, 0.12500, -0.18750, -0.12500, 0.00000, -0.12500, 0.06250, -0.12500, 0.18750, 0.12500, 0.00000, -0.06250, 0.12500, -0.18750, 0.00000, -0.25000, -0.25000, 0.18750, 0.06250, -0.12500, 0.00000, -0.06250, -0.18750, -0.18750, -0.18750, -0.12500, -0.18750, 0.00000, 0.31250, 0.25000, -0.06250, 0.31250, 0.06250, 0.06250, -0.25000, -0.18750, 0.00000, -0.18750, 0.06250, -0.12500, 0.25000, 0.12500, -0.12500, -0.12500, 0.00000, 0.00000, 0.00000, -0.31250, 0.00000, 0.50000, 0.37500, 0.06250, 0.12500, 0.25000, 0.12500, 0.25000, 0.12500, 0.25000, 0.06250, -0.12500, 0.12500, -0.06250, -0.06250, -0.12500, -0.12500, -0.06250, -0.12500, -0.18750, -0.12500, -0.12500, -0.12500, -0.25000, -0.06250, -0.06250, 0.12500, 0.25000, 0.18750, 0.18750, 0.25000, 0.43750, 0.00000, 0.50000, 0.37500, 0.06250, 0.18750, 0.31250, 0.12500, 0.31250, 0.12500, 0.25000, 0.12500, 0.00000, 0.12500, -0.06250, 0.00000, -0.12500, -0.06250, -0.12500, -0.12500, -0.12500, -0.12500, -0.06250, 0.00000, -0.25000, 0.00000, -0.06250, 0.06250, 0.25000, 0.18750, 0.18750, 0.31250, 0.43750, 0.00000, 0.50000, 0.37500, 0.12500, 0.18750, 0.37500, 0.18750, 0.31250, 0.12500, 0.25000, 0.12500, 0.00000, 0.12500, 0.00000, 0.00000, -0.12500, -0.06250, -0.06250, -0.06250, -0.06250, -0.06250, -0.06250, 0.00000, -0.18750, 0.00000, 0.00000, 0.12500, 0.31250, 0.31250, 0.25000, 0.43750, 0.43750, 0.06250, 0.43750, 0.43750, 0.12500, 0.18750, 0.37500, 0.18750, 0.25000, 0.18750, 0.31250, 0.12500, 0.00000, 0.12500, 0.00000, 0.06250, -0.06250, 0.00000, 0.00000, -0.06250, -0.06250, 0.00000, -0.12500, 0.00000, -0.18750, 0.00000, 0.00000, 0.06250, 0.31250, 0.25000, 0.18750, 0.43750, 0.50000, 0.37500, 0.18750, 0.00000, 0.06250, 0.06250, 0.06250, 0.06250, 0.37500, -0.37500, -0.18750, -0.06250, 0.06250, 0.06250, 0.00000, 0.12500, 0.12500, 0.06250, 0.00000, 0.25000, 0.12500, -0.12500, -0.12500, -0.06250, -0.18750, -0.25000, -0.18750, -0.18750, -0.18750, -0.12500, 0.12500, 0.06250, 0.06250, 0.37500, 0.25000, 0.06250, 0.06250, 0.12500, 0.12500, 0.06250, 0.43750, -0.37500, -0.25000, -0.12500, 0.06250, 0.06250, 0.00000, 0.12500, 0.12500, 0.06250, 0.00000, 0.31250, 0.18750, -0.06250, -0.18750, -0.12500, -0.06250, -0.25000, -0.06250, -0.18750, -0.18750, -0.06250, 0.12500, 0.00000, 0.06250, 0.43750, 0.37500, 0.12500, 0.06250, 0.18750, 0.12500, 0.18750, 0.50000, -0.31250, -0.18750, -0.06250, 0.06250, 0.12500, -0.06250, 0.12500, 0.18750, 0.06250, 0.00000, 0.31250, 0.25000, 0.00000, -0.12500, -0.06250, 0.00000, -0.25000, -0.06250, -0.12500, -0.12500, -0.12500, 0.25000, 0.00000, 0.18750, 0.43750, 0.37500, 0.18750, 0.12500, 0.18750, 0.12500, 0.18750, 0.56250, -0.25000, -0.12500, 0.00000, 0.12500, 0.12500, 0.00000, 0.18750, 0.18750, 0.12500, 0.06250, 0.31250, 0.25000, 0.00000, -0.06250, 0.00000, 0.00000, -0.12500, -0.06250, -0.06250, -0.06250, 0.00000, 0.31250, 0.12500, 0.06250, -0.12500, -0.37500, -0.31250, -0.43750, -0.18750, -0.12500, -0.37500, -0.12500, -0.31250, -0.12500, -0.12500, -0.31250, -0.25000, 0.00000, -0.25000, -0.18750, -0.25000, -0.25000, -0.25000, -0.06250, -0.25000, -0.25000, -0.25000, -0.31250, -0.18750, -0.12500, -0.12500, 0.06250, 0.12500, 0.12500, 0.12500, 0.06250, -0.18750, -0.43750, -0.31250, -0.37500, -0.12500, -0.12500, -0.31250, -0.12500, -0.25000, -0.12500, -0.06250, -0.25000, -0.18750, 0.00000, -0.25000, -0.12500, -0.18750, -0.18750, -0.12500, 0.00000, -0.12500, -0.18750, -0.25000, -0.25000, -0.12500, 0.00000, 0.00000, 0.12500, 0.12500, 0.25000, 0.18750, 0.18750, -0.12500, -0.37500, -0.31250, -0.31250, -0.12500, -0.06250, -0.25000, 0.00000, -0.18750, 0.00000, -0.06250, -0.06250, -0.12500, 0.12500, -0.06250, 0.06250, -0.12500, -0.06250, 0.06250, 0.12500, 0.06250, 0.00000, -0.06250, -0.06250, 0.00000, 0.12500, 0.18750, 0.18750, 0.25000, 0.31250, 0.31250, 0.31250, -0.12500, -0.31250, -0.25000, -0.37500, -0.06250, 0.00000, -0.18750, 0.06250, -0.12500, 0.06250, 0.00000, 0.00000, 0.00000, 0.18750, 0.00000, 0.06250, 0.06250, 0.00000, 0.12500, 0.12500, 0.12500, 0.12500, 0.06250, 0.00000, 0.12500, 0.18750, 0.25000, 0.31250, 0.37500, 0.37500, 0.43750, 0.56250, 0.12500, -0.25000, -0.06250, 0.12500, 0.12500, -0.06250, 0.12500, 0.12500, 0.56250, 0.18750, 0.18750, 0.12500, 0.06250, 0.43750, 0.00000, -0.12500, -0.06250, 0.00000, 0.00000, 0.25000, 0.18750, 0.12500, -0.12500, 0.00000, -0.06250, 0.00000, -0.06250, -0.12500, 0.00000, 0.06250, -0.12500, -0.12500, 0.12500, -0.31250, -0.12500, 0.12500, 0.12500, -0.06250, 0.12500, 0.18750, 0.56250, 0.25000, 0.18750, 0.12500, 0.06250, 0.43750, 0.00000, -0.06250, -0.12500, 0.00000, -0.06250, 0.25000, 0.12500, 0.12500, -0.18750, 0.00000, -0.12500, 0.00000, -0.06250, -0.06250, -0.06250, 0.12500, -0.25000, -0.18750, 0.06250, -0.37500, -0.18750, 0.06250, 0.12500, 0.00000, 0.12500, 0.25000, 0.50000, 0.31250, 0.18750, 0.18750, 0.06250, 0.43750, 0.00000, 0.00000, -0.06250, 0.00000, -0.06250, 0.25000, 0.18750, 0.18750, -0.18750, -0.06250, -0.06250, 0.00000, -0.12500, -0.12500, -0.12500, 0.12500, -0.12500, -0.25000, 0.12500, -0.31250, -0.18750, 0.06250, 0.06250, -0.06250, 0.12500, 0.18750, 0.50000, 0.25000, 0.18750, 0.18750, 0.06250, 0.50000, 0.00000, 0.00000, -0.06250, 0.00000, -0.06250, 0.31250, 0.18750, 0.12500, -0.18750, 0.06250, -0.06250, 0.00000, -0.06250, -0.12500, -0.06250, 0.12500, 0.00000, -0.18750, -0.37500, -0.12500, 0.00000, 0.06250, -0.06250, 0.00000, 0.06250, 0.06250, 0.18750, 0.25000, 0.00000, 0.31250, 0.12500, 0.06250, 0.25000, 0.18750, 0.37500, 0.25000, 0.06250, -0.12500, 0.18750, 0.18750, 0.18750, -0.18750, 0.18750, -0.06250, 0.06250, 0.12500, -0.06250, -0.12500, 0.00000, 0.18750, -0.37500, -0.06250, 0.06250, 0.00000, -0.12500, 0.06250, 0.12500, 0.12500, 0.25000, 0.12500, 0.06250, 0.25000, 0.18750, 0.06250, 0.12500, 0.18750, 0.31250, 0.18750, 0.00000, -0.12500, 0.12500, 0.18750, 0.12500, -0.18750, 0.12500, -0.18750, -0.06250, 0.12500, -0.06250, -0.12500, 0.00000, 0.12500, -0.43750, -0.06250, 0.12500, 0.12500, -0.06250, 0.06250, 0.06250, 0.12500, 0.31250, 0.25000, 0.06250, 0.25000, 0.18750, 0.00000, 0.18750, 0.06250, 0.31250, 0.18750, -0.06250, -0.06250, 0.12500, 0.12500, 0.06250, -0.25000, 0.06250, -0.18750, 0.00000, 0.12500, -0.06250, -0.12500, -0.18750, 0.18750, -0.37500, -0.06250, 0.12500, 0.12500, -0.06250, 0.06250, 0.12500, 0.06250, 0.25000, 0.18750, 0.06250, 0.25000, 0.12500, 0.00000, 0.18750, 0.06250, 0.37500, 0.18750, 0.00000, -0.06250, 0.00000, 0.12500, 0.06250, -0.18750, 0.06250, -0.18750, 0.00000, 0.12500, 0.00000, -0.12500, -0.18750, 0.12500, -0.31250, -0.56250, -0.18750, 0.06250, 0.06250, -0.12500, -0.12500, -0.18750, -0.06250, -0.18750, -0.06250, 0.00000, 0.00000, 0.00000, 0.12500, 0.18750, 0.00000, 0.06250, 0.12500, 0.12500, 0.06250, 0.12500, 0.18750, 0.43750, 0.12500, 0.25000, 0.25000, 0.06250, -0.06250, 0.06250, 0.06250, 0.00000, -0.31250, -0.62500, -0.12500, 0.06250, 0.06250, -0.12500, -0.06250, -0.18750, -0.06250, -0.18750, -0.12500, -0.06250, -0.06250, -0.06250, 0.06250, 0.12500, -0.06250, -0.06250, 0.06250, 0.06250, 0.06250, 0.06250, 0.18750, 0.37500, 0.12500, 0.18750, 0.18750, -0.06250, -0.12500, 0.12500, 0.00000, 0.00000, -0.37500, -0.75000, -0.18750, -0.06250, 0.00000, -0.18750, -0.18750, -0.31250, -0.18750, -0.25000, -0.12500, -0.06250, -0.12500, -0.12500, 0.00000, -0.06250, -0.12500, -0.18750, 0.00000, 0.00000, -0.06250, -0.06250, 0.06250, 0.25000, -0.06250, 0.18750, 0.06250, -0.06250, 0.00000, -0.06250, -0.18750, -0.06250, -0.31250, -0.62500, -0.18750, -0.06250, -0.06250, -0.25000, -0.18750, -0.31250, -0.25000, -0.37500, -0.18750, -0.12500, -0.18750, -0.12500, -0.12500, -0.06250, -0.25000, -0.18750, -0.06250, 0.00000, -0.12500, -0.18750, 0.06250, 0.12500, 0.00000, 0.18750, 0.06250, -0.25000, -0.12500, -0.06250, -0.18750, -0.25000, 0.50000, 0.00000, -0.25000, 0.18750, 0.00000, -0.25000, 0.12500, 0.37500, -0.12500, -0.43750, -0.12500, 0.12500, 0.12500, 0.06250, 0.25000, 0.18750, 0.06250, 0.00000, 0.37500, 0.18750, 0.06250, -0.18750, -0.06250, 0.06250, -0.25000, -0.12500, -0.18750, -0.37500, -0.06250, 0.25000, 0.12500, 0.18750, 0.43750, 0.00000, -0.25000, 0.18750, 0.06250, -0.25000, 0.12500, 0.43750, -0.18750, -0.50000, -0.12500, 0.12500, 0.06250, 0.00000, 0.25000, 0.18750, 0.06250, 0.00000, 0.37500, 0.18750, 0.00000, -0.18750, -0.12500, 0.00000, -0.18750, -0.06250, -0.18750, -0.37500, -0.06250, 0.25000, 0.12500, 0.18750, 0.43750, 0.00000, -0.25000, 0.18750, 0.00000, -0.25000, 0.12500, 0.37500, -0.18750, -0.50000, -0.12500, 0.12500, 0.06250, 0.00000, 0.18750, 0.12500, 0.00000, -0.06250, 0.37500, 0.18750, 0.06250, -0.18750, -0.06250, 0.00000, -0.31250, -0.12500, -0.25000, -0.43750, -0.06250, 0.18750, 0.18750, 0.12500, 0.43750, -0.06250, -0.25000, 0.18750, 0.00000, -0.31250, 0.12500, 0.31250, -0.18750, -0.50000, -0.18750, 0.12500, 0.00000, 0.06250, 0.12500, 0.12500, 0.00000, -0.06250, 0.31250, 0.18750, 0.00000, -0.25000, -0.12500, -0.06250, -0.25000, -0.18750, -0.25000, -0.43750, -0.12500, 0.25000, 0.12500, 0.06250, -0.18750, -0.12500, 0.43750, 0.31250, 0.31250, 0.06250, 0.12500, 0.00000, 0.25000, 0.06250, 0.06250, -0.06250, -0.06250, -0.12500, -0.12500, -0.25000, -0.18750, -0.18750, -0.18750, -0.12500, -0.12500, -0.06250, -0.06250, 0.12500, 0.12500, 0.18750, 0.25000, 0.25000, 0.31250, 0.31250, 0.43750, 0.37500, -0.31250, -0.25000, 0.43750, 0.31250, 0.25000, 0.06250, 0.12500, 0.00000, 0.25000, 0.06250, 0.00000, -0.12500, -0.12500, -0.12500, -0.12500, -0.18750, -0.25000, -0.18750, -0.18750, -0.18750, -0.12500, -0.06250, -0.06250, 0.12500, 0.12500, 0.25000, 0.25000, 0.25000, 0.37500, 0.31250, 0.43750, 0.37500, -0.25000, -0.31250, 0.43750, 0.31250, 0.25000, 0.06250, 0.06250, 0.00000, 0.31250, 0.06250, 0.06250, -0.12500, -0.12500, -0.12500, -0.12500, -0.18750, -0.18750, -0.18750, -0.18750, -0.18750, -0.06250, -0.06250, 0.00000, 0.12500, 0.12500, 0.25000, 0.25000, 0.18750, 0.37500, 0.25000, 0.50000, 0.50000, -0.31250, -0.25000, 0.37500, 0.25000, 0.18750, 0.00000, 0.06250, 0.00000, 0.25000, 0.06250, 0.00000, -0.12500, -0.06250, -0.12500, -0.12500, -0.25000, -0.18750, -0.18750, -0.18750, -0.12500, -0.12500, -0.06250, 0.00000, 0.18750, 0.12500, 0.25000, 0.31250, 0.18750, 0.37500, 0.31250, 0.43750, 0.43750, -0.06250, 0.50000, 0.12500, -0.12500, -0.06250, 0.25000, 0.00000, 0.25000, 0.25000, 0.00000, 0.00000, 0.25000, 0.00000, -0.06250, 0.25000, 0.06250, 0.12500, 0.12500, 0.25000, 0.25000, 0.37500, 0.43750, 0.56250, 0.68750, 0.25000, 0.25000, 0.31250, 0.06250, -0.12500, -0.12500, -0.12500, 0.06250, -0.06250, 0.50000, 0.12500, -0.18750, -0.06250, 0.18750, -0.12500, 0.18750, 0.18750, -0.12500, -0.06250, 0.12500, 0.00000, -0.18750, 0.12500, -0.12500, 0.00000, 0.00000, 0.18750, 0.18750, 0.25000, 0.37500, 0.43750, 0.50000, 0.18750, 0.12500, 0.12500, -0.06250, -0.25000, -0.12500, -0.18750, -0.06250, -0.12500, 0.50000, 0.06250, -0.25000, -0.06250, 0.12500, -0.12500, 0.06250, 0.06250, -0.18750, -0.18750, 0.00000, -0.18750, -0.37500, -0.12500, -0.31250, -0.12500, -0.12500, 0.00000, 0.06250, 0.12500, 0.18750, 0.31250, 0.37500, 0.00000, 0.06250, 0.06250, -0.06250, -0.31250, -0.25000, -0.31250, -0.18750, -0.12500, 0.37500, 0.06250, -0.25000, -0.18750, 0.00000, -0.18750, 0.00000, 0.00000, -0.31250, -0.18750, -0.18750, -0.31250, -0.43750, -0.25000, -0.43750, -0.25000, -0.25000, -0.12500, -0.12500, -0.06250, 0.06250, 0.12500, 0.18750, -0.06250, -0.06250, 0.00000, -0.12500, -0.43750, -0.25000, -0.37500, -0.31250, 0.37500, -0.31250, 0.31250, 0.31250, 0.06250, -0.25000, -0.12500, -0.31250, 0.18750, -0.12500, -0.06250, -0.12500, -0.25000, -0.12500, -0.06250, -0.25000, -0.25000, -0.18750, -0.12500, -0.06250, 0.06250, 0.12500, 0.18750, 0.31250, 0.00000, 0.18750, 0.12500, 0.00000, -0.18750, -0.12500, -0.18750, -0.06250, 0.37500, -0.43750, 0.31250, 0.25000, 0.06250, -0.31250, -0.12500, -0.31250, 0.18750, -0.25000, -0.06250, -0.12500, -0.25000, -0.12500, -0.12500, -0.25000, -0.25000, -0.25000, -0.12500, -0.06250, 0.06250, 0.18750, 0.18750, 0.37500, -0.06250, 0.25000, 0.18750, -0.06250, -0.18750, -0.18750, -0.25000, -0.12500, 0.37500, -0.43750, 0.25000, 0.25000, 0.06250, -0.31250, -0.12500, -0.43750, 0.18750, -0.25000, -0.12500, -0.18750, -0.25000, -0.12500, -0.12500, -0.18750, -0.25000, -0.18750, -0.12500, -0.06250, 0.06250, 0.12500, 0.12500, 0.37500, -0.06250, 0.18750, 0.12500, -0.06250, -0.25000, -0.12500, -0.31250, -0.12500, 0.31250, -0.43750, 0.12500, 0.18750, 0.00000, -0.31250, -0.18750, -0.31250, 0.06250, -0.18750, -0.12500, -0.18750, -0.31250, -0.18750, -0.06250, -0.18750, -0.25000, -0.18750, -0.12500, -0.12500, 0.00000, 0.06250, 0.18750, 0.31250, -0.06250, 0.12500, 0.06250, -0.06250, -0.31250, -0.18750, -0.18750, -0.18750, 0.00000, -0.37500, 0.06250, 0.18750, 0.00000, -0.12500, 0.00000, -0.18750, 0.18750, -0.12500, 0.06250, 0.25000, 0.00000, -0.06250, 0.25000, 0.18750, 0.18750, 0.25000, 0.25000, 0.12500, 0.06250, 0.00000, 0.06250, 0.00000, -0.06250, 0.00000, 0.06250, 0.06250, -0.06250, -0.06250, 0.06250, 0.00000, 0.00000, -0.43750, 0.12500, 0.25000, 0.06250, -0.12500, 0.06250, -0.25000, 0.18750, -0.12500, 0.06250, 0.31250, 0.00000, 0.00000, 0.31250, 0.25000, 0.25000, 0.31250, 0.31250, 0.25000, 0.18750, 0.12500, 0.12500, 0.00000, 0.00000, 0.00000, 0.00000, -0.06250, 0.00000, 0.06250, 0.25000, 0.12500, 0.06250, -0.37500, 0.06250, 0.25000, 0.06250, -0.12500, 0.12500, -0.12500, 0.25000, 0.00000, 0.12500, 0.37500, 0.06250, 0.06250, 0.37500, 0.31250, 0.31250, 0.37500, 0.43750, 0.25000, 0.18750, 0.18750, 0.12500, 0.12500, 0.12500, 0.06250, 0.12500, 0.00000, 0.00000, 0.12500, 0.06250, 0.12500, 0.06250, -0.31250, 0.06250, 0.25000, 0.06250, 0.00000, 0.12500, -0.12500, 0.25000, 0.06250, 0.18750, 0.37500, 0.18750, 0.12500, 0.43750, 0.37500, 0.31250, 0.43750, 0.43750, 0.25000, 0.25000, 0.18750, 0.18750, 0.06250, 0.06250, 0.18750, 0.06250, 0.12500, 0.12500, 0.00000, 0.06250, 0.18750, -0.06250, -0.50000, -0.37500, 0.12500, -0.06250, 0.06250, 0.06250, -0.18750, 0.25000, 0.00000, 0.06250, -0.12500, -0.18750, -0.31250, -0.12500, -0.12500, -0.12500, 0.00000, -0.18750, -0.31250, -0.25000, -0.18750, -0.25000, -0.18750, -0.12500, -0.06250, -0.06250, 0.00000, 0.00000, -0.31250, -0.06250, -0.31250, -0.06250, -0.43750, -0.37500, 0.12500, -0.06250, 0.06250, 0.12500, -0.06250, 0.31250, 0.06250, 0.12500, -0.06250, -0.12500, -0.18750, -0.12500, 0.00000, -0.12500, 0.00000, -0.12500, -0.18750, -0.18750, -0.18750, -0.12500, -0.18750, -0.06250, 0.00000, -0.12500, -0.12500, -0.06250, -0.31250, -0.18750, -0.25000, -0.06250, -0.37500, -0.31250, 0.18750, 0.00000, 0.18750, 0.18750, 0.00000, 0.37500, 0.18750, 0.18750, 0.06250, 0.06250, -0.06250, 0.06250, 0.12500, 0.06250, 0.12500, 0.00000, -0.12500, 0.00000, -0.06250, -0.06250, -0.06250, -0.06250, 0.12500, -0.12500, -0.06250, 0.00000, -0.25000, -0.18750, -0.25000, 0.00000, -0.31250, -0.25000, 0.25000, 0.06250, 0.18750, 0.25000, 0.12500, 0.50000, 0.31250, 0.25000, 0.18750, 0.12500, 0.12500, 0.12500, 0.25000, 0.12500, 0.18750, 0.06250, 0.00000, 0.00000, -0.06250, -0.06250, -0.06250, 0.06250, 0.06250, -0.06250, 0.06250, 0.00000, -0.31250, -0.12500, -0.18750, -0.25000, 0.50000, 0.00000, -0.12500, -0.12500, -0.37500, -0.31250, -0.31250, -0.12500, -0.50000, -0.31250, -0.37500, -0.31250, -0.12500, -0.43750, -0.31250, -0.43750, -0.37500, -0.37500, -0.18750, -0.18750, -0.25000, -0.12500, 0.18750, -0.12500, 0.06250, 0.06250, -0.18750, -0.31250, -0.12500, -0.25000, -0.43750, -0.25000, 0.56250, 0.12500, -0.06250, 0.00000, -0.31250, -0.25000, -0.18750, -0.06250, -0.37500, -0.25000, -0.25000, -0.25000, -0.06250, -0.31250, -0.12500, -0.37500, -0.25000, -0.31250, -0.06250, -0.12500, -0.06250, 0.06250, 0.37500, 0.00000, 0.12500, 0.18750, -0.12500, -0.18750, -0.18750, -0.25000, -0.37500, -0.18750, 0.68750, 0.18750, 0.00000, 0.06250, -0.18750, -0.06250, 0.00000, 0.12500, -0.18750, -0.12500, -0.06250, 0.00000, 0.18750, -0.12500, 0.12500, -0.12500, -0.12500, -0.12500, 0.12500, 0.06250, 0.06250, 0.18750, 0.56250, 0.18750, 0.25000, 0.18750, -0.06250, -0.06250, -0.06250, -0.18750, -0.18750, -0.12500, 0.62500, 0.31250, 0.06250, 0.12500, -0.06250, 0.00000, 0.06250, 0.18750, -0.06250, -0.06250, 0.12500, 0.12500, 0.31250, 0.00000, 0.25000, 0.00000, 0.00000, 0.00000, 0.25000, 0.12500, 0.12500, 0.31250, 0.68750, 0.18750, 0.37500, 0.31250, -0.06250, -0.06250, -0.06250, -0.06250, -0.18750};
//#endif

#endif
